digraph Tree {
node [shape=box, style="filled, rounded", color="black", fontname=helvetica] ;
edge [fontname=helvetica] ;
0 [label="X[3] <= 0.5\nmse = 556.2625\nsamples = 1264\nvalue = 62.1646", fillcolor="#e581399f"] ;
1 [label="X[4] <= 0.5\nmse = 507.3965\nsamples = 724\nvalue = 52.8108", fillcolor="#e5813987"] ;
0 -> 1 [labeldistance=2.5, labelangle=45, headlabel="True"] ;
2 [label="X[0] <= 0.5\nmse = 444.5508\nsamples = 468\nvalue = 58.8675", fillcolor="#e5813996"] ;
1 -> 2 ;
3 [label="X[1] <= 21.5\nmse = 470.335\nsamples = 235\nvalue = 56.4894", fillcolor="#e5813990"] ;
2 -> 3 ;
4 [label="X[2] <= 13.5\nmse = 35.4167\nsamples = 12\nvalue = 47.5", fillcolor="#e5813979"] ;
3 -> 4 ;
5 [label="X[1] <= 19.5\nmse = 9.0\nsamples = 10\nvalue = 49.0", fillcolor="#e581397d"] ;
4 -> 5 ;
6 [label="X[1] <= 18.5\nmse = 13.8889\nsamples = 6\nvalue = 48.3333", fillcolor="#e581397b"] ;
5 -> 6 ;
7 [label="mse = 0.0\nsamples = 2\nvalue = 50.0", fillcolor="#e5813980"] ;
6 -> 7 ;
8 [label="mse = 18.75\nsamples = 4\nvalue = 47.5", fillcolor="#e5813979"] ;
6 -> 8 ;
9 [label="mse = 0.0\nsamples = 4\nvalue = 50.0", fillcolor="#e5813980"] ;
5 -> 9 ;
10 [label="X[1] <= 19.5\nmse = 100.0\nsamples = 2\nvalue = 40.0", fillcolor="#e5813966"] ;
4 -> 10 ;
11 [label="mse = 0.0\nsamples = 1\nvalue = 50.0", fillcolor="#e5813980"] ;
10 -> 11 ;
12 [label="mse = 0.0\nsamples = 1\nvalue = 30.0", fillcolor="#e581394c"] ;
10 -> 12 ;
13 [label="X[1] <= 77.5\nmse = 489.1562\nsamples = 223\nvalue = 56.9731", fillcolor="#e5813991"] ;
3 -> 13 ;
14 [label="X[1] <= 72.5\nmse = 471.261\nsamples = 219\nvalue = 57.2603", fillcolor="#e5813992"] ;
13 -> 14 ;
15 [label="X[1] <= 71.5\nmse = 468.447\nsamples = 217\nvalue = 57.0046", fillcolor="#e5813991"] ;
14 -> 15 ;
16 [label="X[1] <= 60.5\nmse = 457.3737\nsamples = 215\nvalue = 57.3023", fillcolor="#e5813992"] ;
15 -> 16 ;
17 [label="X[1] <= 59.5\nmse = 447.3708\nsamples = 188\nvalue = 56.3032", fillcolor="#e5813990"] ;
16 -> 17 ;
18 [label="X[2] <= 16.5\nmse = 422.0928\nsamples = 184\nvalue = 56.8207", fillcolor="#e5813991"] ;
17 -> 18 ;
19 [label="X[2] <= 11.5\nmse = 426.7668\nsamples = 167\nvalue = 56.1078", fillcolor="#e581398f"] ;
18 -> 19 ;
20 [label="X[1] <= 39.5\nmse = 329.0809\nsamples = 27\nvalue = 60.7407", fillcolor="#e581399b"] ;
19 -> 20 ;
21 [label="X[1] <= 34.0\nmse = 133.8542\nsamples = 12\nvalue = 71.25", fillcolor="#e58139b6"] ;
20 -> 21 ;
22 [label="X[2] <= 10.5\nmse = 70.1389\nsamples = 6\nvalue = 64.1667", fillcolor="#e58139a4"] ;
21 -> 22 ;
23 [label="X[1] <= 30.0\nmse = 6.25\nsamples = 2\nvalue = 72.5", fillcolor="#e58139b9"] ;
22 -> 23 ;
24 [label="mse = 0.0\nsamples = 1\nvalue = 75.0", fillcolor="#e58139bf"] ;
23 -> 24 ;
25 [label="mse = 0.0\nsamples = 1\nvalue = 70.0", fillcolor="#e58139b2"] ;
23 -> 25 ;
26 [label="X[1] <= 27.5\nmse = 50.0\nsamples = 4\nvalue = 60.0", fillcolor="#e5813999"] ;
22 -> 26 ;
27 [label="X[1] <= 24.0\nmse = 22.2222\nsamples = 3\nvalue = 63.3333", fillcolor="#e58139a2"] ;
26 -> 27 ;
28 [label="mse = 0.0\nsamples = 1\nvalue = 60.0", fillcolor="#e5813999"] ;
27 -> 28 ;
29 [label="mse = 25.0\nsamples = 2\nvalue = 65.0", fillcolor="#e58139a6"] ;
27 -> 29 ;
30 [label="mse = 0.0\nsamples = 1\nvalue = 50.0", fillcolor="#e5813980"] ;
26 -> 30 ;
31 [label="X[1] <= 36.5\nmse = 97.2222\nsamples = 6\nvalue = 78.3333", fillcolor="#e58139c8"] ;
21 -> 31 ;
32 [label="mse = 156.25\nsamples = 2\nvalue = 72.5", fillcolor="#e58139b9"] ;
31 -> 32 ;
33 [label="X[1] <= 38.5\nmse = 42.1875\nsamples = 4\nvalue = 81.25", fillcolor="#e58139cf"] ;
31 -> 33 ;
34 [label="mse = 0.0\nsamples = 3\nvalue = 85.0", fillcolor="#e58139d9"] ;
33 -> 34 ;
35 [label="mse = 0.0\nsamples = 1\nvalue = 70.0", fillcolor="#e58139b2"] ;
33 -> 35 ;
36 [label="X[1] <= 40.5\nmse = 326.2222\nsamples = 15\nvalue = 52.3333", fillcolor="#e5813985"] ;
20 -> 36 ;
37 [label="X[2] <= 8.0\nmse = 105.5556\nsamples = 3\nvalue = 28.3333", fillcolor="#e5813948"] ;
36 -> 37 ;
38 [label="mse = 0.0\nsamples = 1\nvalue = 30.0", fillcolor="#e581394c"] ;
37 -> 38 ;
39 [label="mse = 156.25\nsamples = 2\nvalue = 27.5", fillcolor="#e5813946"] ;
37 -> 39 ;
40 [label="X[1] <= 42.0\nmse = 201.3889\nsamples = 12\nvalue = 58.3333", fillcolor="#e5813995"] ;
36 -> 40 ;
41 [label="mse = 0.0\nsamples = 1\nvalue = 85.0", fillcolor="#e58139d9"] ;
40 -> 41 ;
42 [label="X[1] <= 55.0\nmse = 149.1736\nsamples = 11\nvalue = 55.9091", fillcolor="#e581398f"] ;
40 -> 42 ;
43 [label="X[1] <= 53.0\nmse = 128.3951\nsamples = 9\nvalue = 52.7778", fillcolor="#e5813987"] ;
42 -> 43 ;
44 [label="X[1] <= 50.5\nmse = 121.4844\nsamples = 8\nvalue = 54.375", fillcolor="#e581398b"] ;
43 -> 44 ;
45 [label="X[1] <= 46.5\nmse = 103.4722\nsamples = 6\nvalue = 50.8333", fillcolor="#e5813982"] ;
44 -> 45 ;
46 [label="X[1] <= 44.5\nmse = 75.0\nsamples = 4\nvalue = 55.0", fillcolor="#e581398c"] ;
45 -> 46 ;
47 [label="mse = 0.0\nsamples = 2\nvalue = 50.0", fillcolor="#e5813980"] ;
46 -> 47 ;
48 [label="mse = 100.0\nsamples = 2\nvalue = 60.0", fillcolor="#e5813999"] ;
46 -> 48 ;
49 [label="X[2] <= 9.5\nmse = 56.25\nsamples = 2\nvalue = 42.5", fillcolor="#e581396c"] ;
45 -> 49 ;
50 [label="mse = 0.0\nsamples = 1\nvalue = 35.0", fillcolor="#e5813959"] ;
49 -> 50 ;
51 [label="mse = 0.0\nsamples = 1\nvalue = 50.0", fillcolor="#e5813980"] ;
49 -> 51 ;
52 [label="X[1] <= 51.5\nmse = 25.0\nsamples = 2\nvalue = 65.0", fillcolor="#e58139a6"] ;
44 -> 52 ;
53 [label="mse = 0.0\nsamples = 1\nvalue = 60.0", fillcolor="#e5813999"] ;
52 -> 53 ;
54 [label="mse = 0.0\nsamples = 1\nvalue = 70.0", fillcolor="#e58139b2"] ;
52 -> 54 ;
55 [label="mse = 0.0\nsamples = 1\nvalue = 40.0", fillcolor="#e5813966"] ;
43 -> 55 ;
56 [label="mse = 0.0\nsamples = 2\nvalue = 70.0", fillcolor="#e58139b2"] ;
42 -> 56 ;
57 [label="X[1] <= 51.5\nmse = 440.6684\nsamples = 140\nvalue = 55.2143", fillcolor="#e581398d"] ;
19 -> 57 ;
58 [label="X[2] <= 14.5\nmse = 435.4011\nsamples = 118\nvalue = 54.3644", fillcolor="#e581398b"] ;
57 -> 58 ;
59 [label="X[2] <= 12.5\nmse = 445.4416\nsamples = 88\nvalue = 52.6136", fillcolor="#e5813986"] ;
58 -> 59 ;
60 [label="X[1] <= 33.0\nmse = 371.6037\nsamples = 48\nvalue = 56.3542", fillcolor="#e5813990"] ;
59 -> 60 ;
61 [label="X[1] <= 28.5\nmse = 377.551\nsamples = 14\nvalue = 62.1429", fillcolor="#e581399e"] ;
60 -> 61 ;
62 [label="X[1] <= 25.5\nmse = 362.2449\nsamples = 7\nvalue = 51.4286", fillcolor="#e5813983"] ;
61 -> 62 ;
63 [label="X[1] <= 24.0\nmse = 156.25\nsamples = 2\nvalue = 72.5", fillcolor="#e58139b9"] ;
62 -> 63 ;
64 [label="mse = 0.0\nsamples = 1\nvalue = 60.0", fillcolor="#e5813999"] ;
63 -> 64 ;
65 [label="mse = 0.0\nsamples = 1\nvalue = 85.0", fillcolor="#e58139d9"] ;
63 -> 65 ;
66 [label="X[1] <= 27.0\nmse = 196.0\nsamples = 5\nvalue = 43.0", fillcolor="#e581396e"] ;
62 -> 66 ;
67 [label="mse = 0.0\nsamples = 3\nvalue = 50.0", fillcolor="#e5813980"] ;
66 -> 67 ;
68 [label="mse = 306.25\nsamples = 2\nvalue = 32.5", fillcolor="#e5813953"] ;
66 -> 68 ;
69 [label="X[1] <= 29.5\nmse = 163.2653\nsamples = 7\nvalue = 72.8571", fillcolor="#e58139ba"] ;
61 -> 69 ;
70 [label="mse = 0.0\nsamples = 1\nvalue = 75.0", fillcolor="#e58139bf"] ;
69 -> 70 ;
71 [label="X[1] <= 31.0\nmse = 189.5833\nsamples = 6\nvalue = 72.5", fillcolor="#e58139b9"] ;
69 -> 71 ;
72 [label="mse = 206.25\nsamples = 4\nvalue = 72.5", fillcolor="#e58139b9"] ;
71 -> 72 ;
73 [label="mse = 156.25\nsamples = 2\nvalue = 72.5", fillcolor="#e58139b9"] ;
71 -> 73 ;
74 [label="X[1] <= 34.5\nmse = 349.6756\nsamples = 34\nvalue = 53.9706", fillcolor="#e581398a"] ;
60 -> 74 ;
75 [label="mse = 456.0\nsamples = 5\nvalue = 42.0", fillcolor="#e581396b"] ;
74 -> 75 ;
76 [label="X[1] <= 38.5\nmse = 302.3781\nsamples = 29\nvalue = 56.0345", fillcolor="#e581398f"] ;
74 -> 76 ;
77 [label="X[1] <= 35.5\nmse = 276.0\nsamples = 10\nvalue = 62.0", fillcolor="#e581399e"] ;
76 -> 77 ;
78 [label="mse = 25.0\nsamples = 2\nvalue = 65.0", fillcolor="#e58139a6"] ;
77 -> 78 ;
79 [label="X[1] <= 37.5\nmse = 335.9375\nsamples = 8\nvalue = 61.25", fillcolor="#e581399c"] ;
77 -> 79 ;
80 [label="X[1] <= 36.5\nmse = 433.3333\nsamples = 6\nvalue = 60.0", fillcolor="#e5813999"] ;
79 -> 80 ;
81 [label="mse = 66.6667\nsamples = 3\nvalue = 60.0", fillcolor="#e5813999"] ;
80 -> 81 ;
82 [label="mse = 800.0\nsamples = 3\nvalue = 60.0", fillcolor="#e5813999"] ;
80 -> 82 ;
83 [label="mse = 25.0\nsamples = 2\nvalue = 65.0", fillcolor="#e58139a6"] ;
79 -> 83 ;
84 [label="X[1] <= 39.5\nmse = 287.6731\nsamples = 19\nvalue = 52.8947", fillcolor="#e5813987"] ;
76 -> 84 ;
85 [label="mse = 0.0\nsamples = 1\nvalue = 0.0", fillcolor="#e5813900"] ;
84 -> 85 ;
86 [label="X[1] <= 44.5\nmse = 139.5833\nsamples = 18\nvalue = 55.8333", fillcolor="#e581398e"] ;
84 -> 86 ;
87 [label="X[1] <= 42.0\nmse = 13.8889\nsamples = 6\nvalue = 48.3333", fillcolor="#e581397b"] ;
86 -> 87 ;
88 [label="X[1] <= 40.5\nmse = 22.2222\nsamples = 3\nvalue = 46.6667", fillcolor="#e5813977"] ;
87 -> 88 ;
89 [label="mse = 0.0\nsamples = 2\nvalue = 50.0", fillcolor="#e5813980"] ;
88 -> 89 ;
90 [label="mse = 0.0\nsamples = 1\nvalue = 40.0", fillcolor="#e5813966"] ;
88 -> 90 ;
91 [label="mse = 0.0\nsamples = 3\nvalue = 50.0", fillcolor="#e5813980"] ;
87 -> 91 ;
92 [label="X[1] <= 46.5\nmse = 160.2431\nsamples = 12\nvalue = 59.5833", fillcolor="#e5813998"] ;
86 -> 92 ;
93 [label="X[1] <= 45.5\nmse = 104.6875\nsamples = 4\nvalue = 68.75", fillcolor="#e58139af"] ;
92 -> 93 ;
94 [label="mse = 0.0\nsamples = 1\nvalue = 70.0", fillcolor="#e58139b2"] ;
93 -> 94 ;
95 [label="mse = 138.8889\nsamples = 3\nvalue = 68.3333", fillcolor="#e58139ae"] ;
93 -> 95 ;
96 [label="X[1] <= 48.5\nmse = 125.0\nsamples = 8\nvalue = 55.0", fillcolor="#e581398c"] ;
92 -> 96 ;
97 [label="X[1] <= 47.5\nmse = 150.0\nsamples = 4\nvalue = 50.0", fillcolor="#e5813980"] ;
96 -> 97 ;
98 [label="mse = 25.0\nsamples = 2\nvalue = 55.0", fillcolor="#e581398c"] ;
97 -> 98 ;
99 [label="mse = 225.0\nsamples = 2\nvalue = 45.0", fillcolor="#e5813973"] ;
97 -> 99 ;
100 [label="X[1] <= 50.5\nmse = 50.0\nsamples = 4\nvalue = 60.0", fillcolor="#e5813999"] ;
96 -> 100 ;
101 [label="X[1] <= 49.5\nmse = 22.2222\nsamples = 3\nvalue = 63.3333", fillcolor="#e58139a2"] ;
100 -> 101 ;
102 [label="mse = 0.0\nsamples = 1\nvalue = 60.0", fillcolor="#e5813999"] ;
101 -> 102 ;
103 [label="mse = 25.0\nsamples = 2\nvalue = 65.0", fillcolor="#e58139a6"] ;
101 -> 103 ;
104 [label="mse = 0.0\nsamples = 1\nvalue = 50.0", fillcolor="#e5813980"] ;
100 -> 104 ;
105 [label="X[1] <= 45.5\nmse = 497.1094\nsamples = 40\nvalue = 48.125", fillcolor="#e581397b"] ;
59 -> 105 ;
106 [label="X[1] <= 40.5\nmse = 478.7879\nsamples = 33\nvalue = 50.0", fillcolor="#e5813980"] ;
105 -> 106 ;
107 [label="X[1] <= 39.0\nmse = 450.4756\nsamples = 29\nvalue = 46.7241", fillcolor="#e5813977"] ;
106 -> 107 ;
108 [label="X[2] <= 13.5\nmse = 385.8099\nsamples = 28\nvalue = 48.3929", fillcolor="#e581397b"] ;
107 -> 108 ;
109 [label="X[1] <= 27.5\nmse = 426.3889\nsamples = 12\nvalue = 43.3333", fillcolor="#e581396e"] ;
108 -> 109 ;
110 [label="X[1] <= 23.5\nmse = 297.9167\nsamples = 6\nvalue = 52.5", fillcolor="#e5813986"] ;
109 -> 110 ;
111 [label="mse = 0.0\nsamples = 1\nvalue = 40.0", fillcolor="#e5813966"] ;
110 -> 111 ;
112 [label="X[1] <= 24.5\nmse = 320.0\nsamples = 5\nvalue = 55.0", fillcolor="#e581398c"] ;
110 -> 112 ;
113 [label="mse = 0.0\nsamples = 1\nvalue = 60.0", fillcolor="#e5813999"] ;
112 -> 113 ;
114 [label="X[1] <= 26.5\nmse = 392.1875\nsamples = 4\nvalue = 53.75", fillcolor="#e5813989"] ;
112 -> 114 ;
115 [label="X[1] <= 25.5\nmse = 505.5556\nsamples = 3\nvalue = 51.6667", fillcolor="#e5813984"] ;
114 -> 115 ;
116 [label="mse = 756.25\nsamples = 2\nvalue = 52.5", fillcolor="#e5813986"] ;
115 -> 116 ;
117 [label="mse = 0.0\nsamples = 1\nvalue = 50.0", fillcolor="#e5813980"] ;
115 -> 117 ;
118 [label="mse = 0.0\nsamples = 1\nvalue = 60.0", fillcolor="#e5813999"] ;
114 -> 118 ;
119 [label="X[1] <= 29.0\nmse = 386.8056\nsamples = 6\nvalue = 34.1667", fillcolor="#e5813957"] ;
109 -> 119 ;
120 [label="mse = 0.0\nsamples = 1\nvalue = 15.0", fillcolor="#e5813926"] ;
119 -> 120 ;
121 [label="X[1] <= 31.5\nmse = 376.0\nsamples = 5\nvalue = 38.0", fillcolor="#e5813961"] ;
119 -> 121 ;
122 [label="mse = 0.0\nsamples = 1\nvalue = 50.0", fillcolor="#e5813980"] ;
121 -> 122 ;
123 [label="X[1] <= 36.5\nmse = 425.0\nsamples = 4\nvalue = 35.0", fillcolor="#e5813959"] ;
121 -> 123 ;
124 [label="X[1] <= 34.0\nmse = 466.6667\nsamples = 3\nvalue = 30.0", fillcolor="#e581394c"] ;
123 -> 124 ;
125 [label="mse = 0.0\nsamples = 1\nvalue = 40.0", fillcolor="#e5813966"] ;
124 -> 125 ;
126 [label="mse = 625.0\nsamples = 2\nvalue = 25.0", fillcolor="#e5813940"] ;
124 -> 126 ;
127 [label="mse = 0.0\nsamples = 1\nvalue = 50.0", fillcolor="#e5813980"] ;
123 -> 127 ;
128 [label="X[1] <= 28.0\nmse = 321.7773\nsamples = 16\nvalue = 52.1875", fillcolor="#e5813985"] ;
108 -> 128 ;
129 [label="X[1] <= 25.5\nmse = 387.6543\nsamples = 9\nvalue = 48.8889", fillcolor="#e581397d"] ;
128 -> 129 ;
130 [label="X[1] <= 24.5\nmse = 75.0\nsamples = 4\nvalue = 55.0", fillcolor="#e581398c"] ;
129 -> 130 ;
131 [label="mse = 0.0\nsamples = 2\nvalue = 50.0", fillcolor="#e5813980"] ;
130 -> 131 ;
132 [label="mse = 100.0\nsamples = 2\nvalue = 60.0", fillcolor="#e5813999"] ;
130 -> 132 ;
133 [label="X[1] <= 26.5\nmse = 584.0\nsamples = 5\nvalue = 44.0", fillcolor="#e5813970"] ;
129 -> 133 ;
134 [label="mse = 0.0\nsamples = 1\nvalue = 40.0", fillcolor="#e5813966"] ;
133 -> 134 ;
135 [label="mse = 725.0\nsamples = 4\nvalue = 45.0", fillcolor="#e5813973"] ;
133 -> 135 ;
136 [label="X[1] <= 29.5\nmse = 205.102\nsamples = 7\nvalue = 56.4286", fillcolor="#e5813990"] ;
128 -> 136 ;
137 [label="mse = 306.25\nsamples = 2\nvalue = 67.5", fillcolor="#e58139ac"] ;
136 -> 137 ;
138 [label="X[1] <= 33.5\nmse = 96.0\nsamples = 5\nvalue = 52.0", fillcolor="#e5813985"] ;
136 -> 138 ;
139 [label="mse = 0.0\nsamples = 2\nvalue = 50.0", fillcolor="#e5813980"] ;
138 -> 139 ;
140 [label="X[1] <= 36.5\nmse = 155.5556\nsamples = 3\nvalue = 53.3333", fillcolor="#e5813988"] ;
138 -> 140 ;
141 [label="mse = 225.0\nsamples = 2\nvalue = 55.0", fillcolor="#e581398c"] ;
140 -> 141 ;
142 [label="mse = 0.0\nsamples = 1\nvalue = 50.0", fillcolor="#e5813980"] ;
140 -> 142 ;
143 [label="mse = 0.0\nsamples = 1\nvalue = 0.0", fillcolor="#e5813900"] ;
107 -> 143 ;
144 [label="X[1] <= 41.5\nmse = 42.1875\nsamples = 4\nvalue = 73.75", fillcolor="#e58139bc"] ;
106 -> 144 ;
145 [label="mse = 0.0\nsamples = 1\nvalue = 85.0", fillcolor="#e58139d9"] ;
144 -> 145 ;
146 [label="mse = 0.0\nsamples = 3\nvalue = 70.0", fillcolor="#e58139b2"] ;
144 -> 146 ;
147 [label="X[1] <= 50.5\nmse = 488.7755\nsamples = 7\nvalue = 39.2857", fillcolor="#e5813964"] ;
105 -> 147 ;
148 [label="X[1] <= 49.5\nmse = 456.0\nsamples = 5\nvalue = 33.0", fillcolor="#e5813954"] ;
147 -> 148 ;
149 [label="X[1] <= 46.5\nmse = 229.6875\nsamples = 4\nvalue = 41.25", fillcolor="#e5813969"] ;
148 -> 149 ;
150 [label="X[2] <= 13.5\nmse = 306.25\nsamples = 2\nvalue = 32.5", fillcolor="#e5813953"] ;
149 -> 150 ;
151 [label="mse = 0.0\nsamples = 1\nvalue = 50.0", fillcolor="#e5813980"] ;
150 -> 151 ;
152 [label="mse = 0.0\nsamples = 1\nvalue = 15.0", fillcolor="#e5813926"] ;
150 -> 152 ;
153 [label="mse = 0.0\nsamples = 2\nvalue = 50.0", fillcolor="#e5813980"] ;
149 -> 153 ;
154 [label="mse = 0.0\nsamples = 1\nvalue = 0.0", fillcolor="#e5813900"] ;
148 -> 154 ;
155 [label="mse = 225.0\nsamples = 2\nvalue = 55.0", fillcolor="#e581398c"] ;
147 -> 155 ;
156 [label="X[1] <= 45.5\nmse = 370.5833\nsamples = 30\nvalue = 59.5", fillcolor="#e5813998"] ;
58 -> 156 ;
157 [label="X[1] <= 27.5\nmse = 260.0962\nsamples = 26\nvalue = 62.5", fillcolor="#e581399f"] ;
156 -> 157 ;
158 [label="X[1] <= 26.5\nmse = 147.9592\nsamples = 7\nvalue = 68.5714", fillcolor="#e58139af"] ;
157 -> 158 ;
159 [label="X[2] <= 15.5\nmse = 66.6667\nsamples = 3\nvalue = 60.0", fillcolor="#e5813999"] ;
158 -> 159 ;
160 [label="mse = 0.0\nsamples = 1\nvalue = 50.0", fillcolor="#e5813980"] ;
159 -> 160 ;
161 [label="mse = 25.0\nsamples = 2\nvalue = 65.0", fillcolor="#e58139a6"] ;
159 -> 161 ;
162 [label="X[2] <= 15.5\nmse = 112.5\nsamples = 4\nvalue = 75.0", fillcolor="#e58139bf"] ;
158 -> 162 ;
163 [label="mse = 0.0\nsamples = 1\nvalue = 85.0", fillcolor="#e58139d9"] ;
162 -> 163 ;
164 [label="mse = 105.5556\nsamples = 3\nvalue = 71.6667", fillcolor="#e58139b7"] ;
162 -> 164 ;
165 [label="X[1] <= 32.5\nmse = 282.8255\nsamples = 19\nvalue = 60.2632", fillcolor="#e581399a"] ;
157 -> 165 ;
166 [label="X[2] <= 15.5\nmse = 60.0\nsamples = 5\nvalue = 55.0", fillcolor="#e581398c"] ;
165 -> 166 ;
167 [label="X[1] <= 29.5\nmse = 100.0\nsamples = 2\nvalue = 60.0", fillcolor="#e5813999"] ;
166 -> 167 ;
168 [label="mse = 0.0\nsamples = 1\nvalue = 70.0", fillcolor="#e58139b2"] ;
167 -> 168 ;
169 [label="mse = 0.0\nsamples = 1\nvalue = 50.0", fillcolor="#e5813980"] ;
167 -> 169 ;
170 [label="X[1] <= 30.0\nmse = 5.5556\nsamples = 3\nvalue = 51.6667", fillcolor="#e5813984"] ;
166 -> 170 ;
171 [label="mse = 0.0\nsamples = 2\nvalue = 50.0", fillcolor="#e5813980"] ;
170 -> 171 ;
172 [label="mse = 0.0\nsamples = 1\nvalue = 55.0", fillcolor="#e581398c"] ;
170 -> 172 ;
173 [label="X[1] <= 36.0\nmse = 348.9796\nsamples = 14\nvalue = 62.1429", fillcolor="#e581399e"] ;
165 -> 173 ;
174 [label="X[1] <= 34.0\nmse = 84.0\nsamples = 5\nvalue = 69.0", fillcolor="#e58139b0"] ;
173 -> 174 ;
175 [label="mse = 138.8889\nsamples = 3\nvalue = 68.3333", fillcolor="#e58139ae"] ;
174 -> 175 ;
176 [label="mse = 0.0\nsamples = 2\nvalue = 70.0", fillcolor="#e58139b2"] ;
174 -> 176 ;
177 [label="X[2] <= 15.5\nmse = 455.5556\nsamples = 9\nvalue = 58.3333", fillcolor="#e5813995"] ;
173 -> 177 ;
178 [label="X[1] <= 37.5\nmse = 425.0\nsamples = 4\nvalue = 65.0", fillcolor="#e58139a6"] ;
177 -> 178 ;
179 [label="mse = 0.0\nsamples = 1\nvalue = 100.0", fillcolor="#e58139ff"] ;
178 -> 179 ;
180 [label="X[1] <= 41.5\nmse = 22.2222\nsamples = 3\nvalue = 53.3333", fillcolor="#e5813988"] ;
178 -> 180 ;
181 [label="mse = 0.0\nsamples = 1\nvalue = 50.0", fillcolor="#e5813980"] ;
180 -> 181 ;
182 [label="mse = 25.0\nsamples = 2\nvalue = 55.0", fillcolor="#e581398c"] ;
180 -> 182 ;
183 [label="X[1] <= 38.0\nmse = 416.0\nsamples = 5\nvalue = 53.0", fillcolor="#e5813987"] ;
177 -> 183 ;
184 [label="mse = 0.0\nsamples = 1\nvalue = 15.0", fillcolor="#e5813926"] ;
183 -> 184 ;
185 [label="X[1] <= 40.5\nmse = 68.75\nsamples = 4\nvalue = 62.5", fillcolor="#e581399f"] ;
183 -> 185 ;
186 [label="mse = 0.0\nsamples = 1\nvalue = 70.0", fillcolor="#e58139b2"] ;
185 -> 186 ;
187 [label="X[1] <= 43.5\nmse = 66.6667\nsamples = 3\nvalue = 60.0", fillcolor="#e5813999"] ;
185 -> 187 ;
188 [label="mse = 0.0\nsamples = 1\nvalue = 60.0", fillcolor="#e5813999"] ;
187 -> 188 ;
189 [label="mse = 100.0\nsamples = 2\nvalue = 60.0", fillcolor="#e5813999"] ;
187 -> 189 ;
190 [label="X[1] <= 48.0\nmse = 650.0\nsamples = 4\nvalue = 40.0", fillcolor="#e5813966"] ;
156 -> 190 ;
191 [label="mse = 0.0\nsamples = 1\nvalue = 50.0", fillcolor="#e5813980"] ;
190 -> 191 ;
192 [label="X[1] <= 50.5\nmse = 822.2222\nsamples = 3\nvalue = 36.6667", fillcolor="#e581395e"] ;
190 -> 192 ;
193 [label="mse = 0.0\nsamples = 1\nvalue = 40.0", fillcolor="#e5813966"] ;
192 -> 193 ;
194 [label="mse = 1225.0\nsamples = 2\nvalue = 35.0", fillcolor="#e5813959"] ;
192 -> 194 ;
195 [label="X[2] <= 15.5\nmse = 444.2665\nsamples = 22\nvalue = 59.7727", fillcolor="#e5813998"] ;
57 -> 195 ;
196 [label="X[2] <= 13.5\nmse = 322.608\nsamples = 18\nvalue = 63.0556", fillcolor="#e58139a1"] ;
195 -> 196 ;
197 [label="X[2] <= 12.5\nmse = 341.358\nsamples = 9\nvalue = 55.5556", fillcolor="#e581398e"] ;
196 -> 197 ;
198 [label="X[1] <= 56.0\nmse = 170.1389\nsamples = 6\nvalue = 60.8333", fillcolor="#e581399b"] ;
197 -> 198 ;
199 [label="mse = 0.0\nsamples = 3\nvalue = 50.0", fillcolor="#e5813980"] ;
198 -> 199 ;
200 [label="X[1] <= 58.0\nmse = 105.5556\nsamples = 3\nvalue = 71.6667", fillcolor="#e58139b7"] ;
198 -> 200 ;
201 [label="mse = 25.0\nsamples = 2\nvalue = 65.0", fillcolor="#e58139a6"] ;
200 -> 201 ;
202 [label="mse = 0.0\nsamples = 1\nvalue = 85.0", fillcolor="#e58139d9"] ;
200 -> 202 ;
203 [label="X[1] <= 58.0\nmse = 516.6667\nsamples = 3\nvalue = 45.0", fillcolor="#e5813973"] ;
197 -> 203 ;
204 [label="X[1] <= 56.5\nmse = 100.0\nsamples = 2\nvalue = 60.0", fillcolor="#e5813999"] ;
203 -> 204 ;
205 [label="mse = 0.0\nsamples = 1\nvalue = 70.0", fillcolor="#e58139b2"] ;
204 -> 205 ;
206 [label="mse = 0.0\nsamples = 1\nvalue = 50.0", fillcolor="#e5813980"] ;
204 -> 206 ;
207 [label="mse = 0.0\nsamples = 1\nvalue = 15.0", fillcolor="#e5813926"] ;
203 -> 207 ;
208 [label="X[1] <= 52.5\nmse = 191.358\nsamples = 9\nvalue = 70.5556", fillcolor="#e58139b4"] ;
196 -> 208 ;
209 [label="mse = 100.0\nsamples = 2\nvalue = 60.0", fillcolor="#e5813999"] ;
208 -> 209 ;
210 [label="X[1] <= 54.0\nmse = 176.5306\nsamples = 7\nvalue = 73.5714", fillcolor="#e58139bc"] ;
208 -> 210 ;
211 [label="mse = 225.0\nsamples = 2\nvalue = 85.0", fillcolor="#e58139d9"] ;
210 -> 211 ;
212 [label="X[2] <= 14.5\nmse = 84.0\nsamples = 5\nvalue = 69.0", fillcolor="#e58139b0"] ;
210 -> 212 ;
213 [label="X[1] <= 58.5\nmse = 79.6875\nsamples = 4\nvalue = 71.25", fillcolor="#e58139b6"] ;
212 -> 213 ;
214 [label="X[1] <= 56.0\nmse = 22.2222\nsamples = 3\nvalue = 66.6667", fillcolor="#e58139aa"] ;
213 -> 214 ;
215 [label="mse = 0.0\nsamples = 1\nvalue = 70.0", fillcolor="#e58139b2"] ;
214 -> 215 ;
216 [label="X[1] <= 57.5\nmse = 25.0\nsamples = 2\nvalue = 65.0", fillcolor="#e58139a6"] ;
214 -> 216 ;
217 [label="mse = 0.0\nsamples = 1\nvalue = 60.0", fillcolor="#e5813999"] ;
216 -> 217 ;
218 [label="mse = 0.0\nsamples = 1\nvalue = 70.0", fillcolor="#e58139b2"] ;
216 -> 218 ;
219 [label="mse = 0.0\nsamples = 1\nvalue = 85.0", fillcolor="#e58139d9"] ;
213 -> 219 ;
220 [label="mse = 0.0\nsamples = 1\nvalue = 60.0", fillcolor="#e5813999"] ;
212 -> 220 ;
221 [label="X[1] <= 55.0\nmse = 725.0\nsamples = 4\nvalue = 45.0", fillcolor="#e5813973"] ;
195 -> 221 ;
222 [label="mse = 0.0\nsamples = 1\nvalue = 70.0", fillcolor="#e58139b2"] ;
221 -> 222 ;
223 [label="X[1] <= 58.0\nmse = 688.8889\nsamples = 3\nvalue = 36.6667", fillcolor="#e581395e"] ;
221 -> 223 ;
224 [label="mse = 900.0\nsamples = 2\nvalue = 30.0", fillcolor="#e581394c"] ;
223 -> 224 ;
225 [label="mse = 0.0\nsamples = 1\nvalue = 50.0", fillcolor="#e5813980"] ;
223 -> 225 ;
226 [label="X[1] <= 29.5\nmse = 322.1453\nsamples = 17\nvalue = 63.8235", fillcolor="#e58139a3"] ;
18 -> 226 ;
227 [label="mse = 0.0\nsamples = 2\nvalue = 85.0", fillcolor="#e58139d9"] ;
226 -> 227 ;
228 [label="X[1] <= 46.5\nmse = 297.3333\nsamples = 15\nvalue = 61.0", fillcolor="#e581399c"] ;
226 -> 228 ;
229 [label="X[1] <= 35.5\nmse = 339.0\nsamples = 10\nvalue = 56.0", fillcolor="#e581398f"] ;
228 -> 229 ;
230 [label="X[1] <= 34.0\nmse = 414.0\nsamples = 5\nvalue = 64.0", fillcolor="#e58139a3"] ;
229 -> 230 ;
231 [label="X[1] <= 32.5\nmse = 450.0\nsamples = 3\nvalue = 55.0", fillcolor="#e581398c"] ;
230 -> 231 ;
232 [label="mse = 506.25\nsamples = 2\nvalue = 62.5", fillcolor="#e581399f"] ;
231 -> 232 ;
233 [label="mse = 0.0\nsamples = 1\nvalue = 40.0", fillcolor="#e5813966"] ;
231 -> 233 ;
234 [label="mse = 56.25\nsamples = 2\nvalue = 77.5", fillcolor="#e58139c6"] ;
230 -> 234 ;
235 [label="X[1] <= 45.5\nmse = 136.0\nsamples = 5\nvalue = 48.0", fillcolor="#e581397a"] ;
229 -> 235 ;
236 [label="X[1] <= 41.5\nmse = 125.0\nsamples = 4\nvalue = 45.0", fillcolor="#e5813973"] ;
235 -> 236 ;
237 [label="X[1] <= 36.5\nmse = 66.6667\nsamples = 3\nvalue = 50.0", fillcolor="#e5813980"] ;
236 -> 237 ;
238 [label="mse = 0.0\nsamples = 1\nvalue = 40.0", fillcolor="#e5813966"] ;
237 -> 238 ;
239 [label="X[1] <= 37.5\nmse = 25.0\nsamples = 2\nvalue = 55.0", fillcolor="#e581398c"] ;
237 -> 239 ;
240 [label="mse = 0.0\nsamples = 1\nvalue = 50.0", fillcolor="#e5813980"] ;
239 -> 240 ;
241 [label="mse = 0.0\nsamples = 1\nvalue = 60.0", fillcolor="#e5813999"] ;
239 -> 241 ;
242 [label="mse = 0.0\nsamples = 1\nvalue = 30.0", fillcolor="#e581394c"] ;
236 -> 242 ;
243 [label="mse = 0.0\nsamples = 1\nvalue = 60.0", fillcolor="#e5813999"] ;
235 -> 243 ;
244 [label="X[1] <= 50.5\nmse = 64.0\nsamples = 5\nvalue = 71.0", fillcolor="#e58139b5"] ;
228 -> 244 ;
245 [label="mse = 25.0\nsamples = 2\nvalue = 65.0", fillcolor="#e58139a6"] ;
244 -> 245 ;
246 [label="X[1] <= 54.5\nmse = 50.0\nsamples = 3\nvalue = 75.0", fillcolor="#e58139bf"] ;
244 -> 246 ;
247 [label="mse = 0.0\nsamples = 1\nvalue = 85.0", fillcolor="#e58139d9"] ;
246 -> 247 ;
248 [label="mse = 0.0\nsamples = 2\nvalue = 70.0", fillcolor="#e58139b2"] ;
246 -> 248 ;
249 [label="X[2] <= 16.5\nmse = 1031.25\nsamples = 4\nvalue = 32.5", fillcolor="#e5813953"] ;
17 -> 249 ;
250 [label="X[2] <= 15.5\nmse = 150.0\nsamples = 3\nvalue = 15.0", fillcolor="#e5813926"] ;
249 -> 250 ;
251 [label="mse = 0.0\nsamples = 1\nvalue = 15.0", fillcolor="#e5813926"] ;
250 -> 251 ;
252 [label="mse = 225.0\nsamples = 2\nvalue = 15.0", fillcolor="#e5813926"] ;
250 -> 252 ;
253 [label="mse = 0.0\nsamples = 1\nvalue = 85.0", fillcolor="#e58139d9"] ;
249 -> 253 ;
254 [label="X[1] <= 70.5\nmse = 471.6735\nsamples = 27\nvalue = 64.2593", fillcolor="#e58139a4"] ;
16 -> 254 ;
255 [label="X[2] <= 16.5\nmse = 459.36\nsamples = 25\nvalue = 65.8", fillcolor="#e58139a8"] ;
254 -> 255 ;
256 [label="X[1] <= 66.0\nmse = 317.75\nsamples = 20\nvalue = 68.5", fillcolor="#e58139af"] ;
255 -> 256 ;
257 [label="X[1] <= 62.5\nmse = 185.2431\nsamples = 12\nvalue = 72.0833", fillcolor="#e58139b8"] ;
256 -> 257 ;
258 [label="X[2] <= 12.5\nmse = 120.1389\nsamples = 6\nvalue = 65.8333", fillcolor="#e58139a8"] ;
257 -> 258 ;
259 [label="X[1] <= 61.5\nmse = 156.25\nsamples = 2\nvalue = 72.5", fillcolor="#e58139b9"] ;
258 -> 259 ;
260 [label="mse = 0.0\nsamples = 1\nvalue = 85.0", fillcolor="#e58139d9"] ;
259 -> 260 ;
261 [label="mse = 0.0\nsamples = 1\nvalue = 60.0", fillcolor="#e5813999"] ;
259 -> 261 ;
262 [label="X[1] <= 61.5\nmse = 68.75\nsamples = 4\nvalue = 62.5", fillcolor="#e581399f"] ;
258 -> 262 ;
263 [label="X[2] <= 14.5\nmse = 66.6667\nsamples = 3\nvalue = 60.0", fillcolor="#e5813999"] ;
262 -> 263 ;
264 [label="mse = 100.0\nsamples = 2\nvalue = 60.0", fillcolor="#e5813999"] ;
263 -> 264 ;
265 [label="mse = 0.0\nsamples = 1\nvalue = 60.0", fillcolor="#e5813999"] ;
263 -> 265 ;
266 [label="mse = 0.0\nsamples = 1\nvalue = 70.0", fillcolor="#e58139b2"] ;
262 -> 266 ;
267 [label="X[2] <= 15.0\nmse = 172.2222\nsamples = 6\nvalue = 78.3333", fillcolor="#e58139c8"] ;
257 -> 267 ;
268 [label="X[1] <= 63.5\nmse = 94.0\nsamples = 5\nvalue = 74.0", fillcolor="#e58139bd"] ;
267 -> 268 ;
269 [label="mse = 0.0\nsamples = 2\nvalue = 70.0", fillcolor="#e58139b2"] ;
268 -> 269 ;
270 [label="X[2] <= 11.0\nmse = 138.8889\nsamples = 3\nvalue = 76.6667", fillcolor="#e58139c4"] ;
268 -> 270 ;
271 [label="mse = 0.0\nsamples = 1\nvalue = 85.0", fillcolor="#e58139d9"] ;
270 -> 271 ;
272 [label="X[1] <= 64.5\nmse = 156.25\nsamples = 2\nvalue = 72.5", fillcolor="#e58139b9"] ;
270 -> 272 ;
273 [label="mse = 0.0\nsamples = 1\nvalue = 85.0", fillcolor="#e58139d9"] ;
272 -> 273 ;
274 [label="mse = 0.0\nsamples = 1\nvalue = 60.0", fillcolor="#e5813999"] ;
272 -> 274 ;
275 [label="mse = 0.0\nsamples = 1\nvalue = 100.0", fillcolor="#e58139ff"] ;
267 -> 275 ;
276 [label="X[2] <= 8.5\nmse = 468.3594\nsamples = 8\nvalue = 63.125", fillcolor="#e58139a1"] ;
256 -> 276 ;
277 [label="mse = 0.0\nsamples = 1\nvalue = 50.0", fillcolor="#e5813980"] ;
276 -> 277 ;
278 [label="X[2] <= 14.5\nmse = 507.1429\nsamples = 7\nvalue = 65.0", fillcolor="#e58139a6"] ;
276 -> 278 ;
279 [label="X[1] <= 69.0\nmse = 586.8056\nsamples = 6\nvalue = 65.8333", fillcolor="#e58139a8"] ;
278 -> 279 ;
280 [label="X[1] <= 67.5\nmse = 867.1875\nsamples = 4\nvalue = 63.75", fillcolor="#e58139a3"] ;
279 -> 280 ;
281 [label="mse = 1225.0\nsamples = 2\nvalue = 65.0", fillcolor="#e58139a6"] ;
280 -> 281 ;
282 [label="mse = 506.25\nsamples = 2\nvalue = 62.5", fillcolor="#e581399f"] ;
280 -> 282 ;
283 [label="mse = 0.0\nsamples = 2\nvalue = 70.0", fillcolor="#e58139b2"] ;
279 -> 283 ;
284 [label="mse = 0.0\nsamples = 1\nvalue = 60.0", fillcolor="#e5813999"] ;
278 -> 284 ;
285 [label="X[1] <= 66.0\nmse = 880.0\nsamples = 5\nvalue = 55.0", fillcolor="#e581398c"] ;
255 -> 285 ;
286 [label="X[1] <= 61.5\nmse = 818.75\nsamples = 4\nvalue = 47.5", fillcolor="#e5813979"] ;
285 -> 286 ;
287 [label="mse = 0.0\nsamples = 1\nvalue = 70.0", fillcolor="#e58139b2"] ;
286 -> 287 ;
288 [label="X[1] <= 62.5\nmse = 866.6667\nsamples = 3\nvalue = 40.0", fillcolor="#e5813966"] ;
286 -> 288 ;
289 [label="mse = 0.0\nsamples = 1\nvalue = 50.0", fillcolor="#e5813980"] ;
288 -> 289 ;
290 [label="mse = 1225.0\nsamples = 2\nvalue = 35.0", fillcolor="#e5813959"] ;
288 -> 290 ;
291 [label="mse = 0.0\nsamples = 1\nvalue = 85.0", fillcolor="#e58139d9"] ;
285 -> 291 ;
292 [label="X[2] <= 14.0\nmse = 225.0\nsamples = 2\nvalue = 45.0", fillcolor="#e5813973"] ;
254 -> 292 ;
293 [label="mse = 0.0\nsamples = 1\nvalue = 30.0", fillcolor="#e581394c"] ;
292 -> 293 ;
294 [label="mse = 0.0\nsamples = 1\nvalue = 60.0", fillcolor="#e5813999"] ;
292 -> 294 ;
295 [label="X[2] <= 10.5\nmse = 625.0\nsamples = 2\nvalue = 25.0", fillcolor="#e5813940"] ;
15 -> 295 ;
296 [label="mse = 0.0\nsamples = 1\nvalue = 0.0", fillcolor="#e5813900"] ;
295 -> 296 ;
297 [label="mse = 0.0\nsamples = 1\nvalue = 50.0", fillcolor="#e5813980"] ;
295 -> 297 ;
298 [label="mse = 0.0\nsamples = 2\nvalue = 85.0", fillcolor="#e58139d9"] ;
14 -> 298 ;
299 [label="X[1] <= 79.0\nmse = 1217.1875\nsamples = 4\nvalue = 41.25", fillcolor="#e5813969"] ;
13 -> 299 ;
300 [label="X[2] <= 16.5\nmse = 56.25\nsamples = 2\nvalue = 7.5", fillcolor="#e5813913"] ;
299 -> 300 ;
301 [label="mse = 0.0\nsamples = 1\nvalue = 0.0", fillcolor="#e5813900"] ;
300 -> 301 ;
302 [label="mse = 0.0\nsamples = 1\nvalue = 15.0", fillcolor="#e5813926"] ;
300 -> 302 ;
303 [label="X[2] <= 15.5\nmse = 100.0\nsamples = 2\nvalue = 75.0", fillcolor="#e58139bf"] ;
299 -> 303 ;
304 [label="mse = 0.0\nsamples = 1\nvalue = 85.0", fillcolor="#e58139d9"] ;
303 -> 304 ;
305 [label="mse = 0.0\nsamples = 1\nvalue = 65.0", fillcolor="#e58139a6"] ;
303 -> 305 ;
306 [label="X[1] <= 39.5\nmse = 407.088\nsamples = 233\nvalue = 61.2661", fillcolor="#e581399c"] ;
2 -> 306 ;
307 [label="X[2] <= 10.5\nmse = 377.1549\nsamples = 97\nvalue = 59.1753", fillcolor="#e5813997"] ;
306 -> 307 ;
308 [label="X[1] <= 27.5\nmse = 536.0\nsamples = 5\nvalue = 72.0", fillcolor="#e58139b8"] ;
307 -> 308 ;
309 [label="X[1] <= 21.0\nmse = 22.2222\nsamples = 3\nvalue = 53.3333", fillcolor="#e5813988"] ;
308 -> 309 ;
310 [label="mse = 0.0\nsamples = 1\nvalue = 60.0", fillcolor="#e5813999"] ;
309 -> 310 ;
311 [label="mse = 0.0\nsamples = 2\nvalue = 50.0", fillcolor="#e5813980"] ;
309 -> 311 ;
312 [label="mse = 0.0\nsamples = 2\nvalue = 100.0", fillcolor="#e58139ff"] ;
308 -> 312 ;
313 [label="X[2] <= 13.5\nmse = 359.0974\nsamples = 92\nvalue = 58.4783", fillcolor="#e5813995"] ;
307 -> 313 ;
314 [label="X[1] <= 38.5\nmse = 329.5396\nsamples = 52\nvalue = 56.6346", fillcolor="#e5813990"] ;
313 -> 314 ;
315 [label="X[1] <= 36.0\nmse = 301.3456\nsamples = 51\nvalue = 57.451", fillcolor="#e5813993"] ;
314 -> 315 ;
316 [label="X[1] <= 29.5\nmse = 284.1682\nsamples = 46\nvalue = 56.3043", fillcolor="#e5813990"] ;
315 -> 316 ;
317 [label="X[1] <= 23.5\nmse = 349.0114\nsamples = 31\nvalue = 58.3871", fillcolor="#e5813995"] ;
316 -> 317 ;
318 [label="X[1] <= 22.5\nmse = 396.875\nsamples = 16\nvalue = 52.5", fillcolor="#e5813986"] ;
317 -> 318 ;
319 [label="X[2] <= 11.5\nmse = 228.5714\nsamples = 14\nvalue = 55.0", fillcolor="#e581398c"] ;
318 -> 319 ;
320 [label="X[1] <= 19.5\nmse = 100.0\nsamples = 4\nvalue = 60.0", fillcolor="#e5813999"] ;
319 -> 320 ;
321 [label="mse = 0.0\nsamples = 2\nvalue = 50.0", fillcolor="#e5813980"] ;
320 -> 321 ;
322 [label="mse = 0.0\nsamples = 2\nvalue = 70.0", fillcolor="#e58139b2"] ;
320 -> 322 ;
323 [label="X[1] <= 19.0\nmse = 266.0\nsamples = 10\nvalue = 53.0", fillcolor="#e5813987"] ;
319 -> 323 ;
324 [label="mse = 0.0\nsamples = 1\nvalue = 60.0", fillcolor="#e5813999"] ;
323 -> 324 ;
325 [label="X[1] <= 20.5\nmse = 289.5062\nsamples = 9\nvalue = 52.2222", fillcolor="#e5813985"] ;
323 -> 325 ;
326 [label="X[2] <= 12.5\nmse = 490.0\nsamples = 5\nvalue = 50.0", fillcolor="#e5813980"] ;
325 -> 326 ;
327 [label="mse = 0.0\nsamples = 3\nvalue = 50.0", fillcolor="#e5813980"] ;
326 -> 327 ;
328 [label="mse = 1225.0\nsamples = 2\nvalue = 50.0", fillcolor="#e5813980"] ;
326 -> 328 ;
329 [label="X[1] <= 21.5\nmse = 25.0\nsamples = 4\nvalue = 55.0", fillcolor="#e581398c"] ;
325 -> 329 ;
330 [label="X[2] <= 12.5\nmse = 22.2222\nsamples = 3\nvalue = 56.6667", fillcolor="#e5813990"] ;
329 -> 330 ;
331 [label="mse = 25.0\nsamples = 2\nvalue = 55.0", fillcolor="#e581398c"] ;
330 -> 331 ;
332 [label="mse = 0.0\nsamples = 1\nvalue = 60.0", fillcolor="#e5813999"] ;
330 -> 332 ;
333 [label="mse = 0.0\nsamples = 1\nvalue = 50.0", fillcolor="#e5813980"] ;
329 -> 333 ;
334 [label="mse = 1225.0\nsamples = 2\nvalue = 35.0", fillcolor="#e5813959"] ;
318 -> 334 ;
335 [label="X[1] <= 25.5\nmse = 221.5556\nsamples = 15\nvalue = 64.6667", fillcolor="#e58139a5"] ;
317 -> 335 ;
336 [label="mse = 0.0\nsamples = 2\nvalue = 85.0", fillcolor="#e58139d9"] ;
335 -> 336 ;
337 [label="X[2] <= 11.5\nmse = 182.2485\nsamples = 13\nvalue = 61.5385", fillcolor="#e581399d"] ;
335 -> 337 ;
338 [label="mse = 0.0\nsamples = 1\nvalue = 50.0", fillcolor="#e5813980"] ;
337 -> 338 ;
339 [label="X[2] <= 12.5\nmse = 185.4167\nsamples = 12\nvalue = 62.5", fillcolor="#e581399f"] ;
337 -> 339 ;
340 [label="X[1] <= 27.0\nmse = 255.5556\nsamples = 6\nvalue = 66.6667", fillcolor="#e58139aa"] ;
339 -> 340 ;
341 [label="mse = 400.0\nsamples = 2\nvalue = 80.0", fillcolor="#e58139cc"] ;
340 -> 341 ;
342 [label="X[1] <= 28.5\nmse = 50.0\nsamples = 4\nvalue = 60.0", fillcolor="#e5813999"] ;
340 -> 342 ;
343 [label="mse = 66.6667\nsamples = 3\nvalue = 60.0", fillcolor="#e5813999"] ;
342 -> 343 ;
344 [label="mse = 0.0\nsamples = 1\nvalue = 60.0", fillcolor="#e5813999"] ;
342 -> 344 ;
345 [label="X[1] <= 26.5\nmse = 80.5556\nsamples = 6\nvalue = 58.3333", fillcolor="#e5813995"] ;
339 -> 345 ;
346 [label="mse = 64.0\nsamples = 5\nvalue = 56.0", fillcolor="#e581398f"] ;
345 -> 346 ;
347 [label="mse = 0.0\nsamples = 1\nvalue = 70.0", fillcolor="#e58139b2"] ;
345 -> 347 ;
348 [label="X[2] <= 11.5\nmse = 122.6667\nsamples = 15\nvalue = 52.0", fillcolor="#e5813985"] ;
316 -> 348 ;
349 [label="X[1] <= 32.5\nmse = 88.8889\nsamples = 3\nvalue = 36.6667", fillcolor="#e581395e"] ;
348 -> 349 ;
350 [label="mse = 0.0\nsamples = 2\nvalue = 30.0", fillcolor="#e581394c"] ;
349 -> 350 ;
351 [label="mse = 0.0\nsamples = 1\nvalue = 50.0", fillcolor="#e5813980"] ;
349 -> 351 ;
352 [label="X[2] <= 12.5\nmse = 57.6389\nsamples = 12\nvalue = 55.8333", fillcolor="#e581398e"] ;
348 -> 352 ;
353 [label="X[1] <= 33.5\nmse = 61.7284\nsamples = 9\nvalue = 57.7778", fillcolor="#e5813993"] ;
352 -> 353 ;
354 [label="X[1] <= 32.5\nmse = 64.0\nsamples = 5\nvalue = 56.0", fillcolor="#e581398f"] ;
353 -> 354 ;
355 [label="X[1] <= 31.5\nmse = 68.75\nsamples = 4\nvalue = 57.5", fillcolor="#e5813993"] ;
354 -> 355 ;
356 [label="mse = 0.0\nsamples = 1\nvalue = 60.0", fillcolor="#e5813999"] ;
355 -> 356 ;
357 [label="mse = 88.8889\nsamples = 3\nvalue = 56.6667", fillcolor="#e5813990"] ;
355 -> 357 ;
358 [label="mse = 0.0\nsamples = 1\nvalue = 50.0", fillcolor="#e5813980"] ;
354 -> 358 ;
359 [label="X[1] <= 34.5\nmse = 50.0\nsamples = 4\nvalue = 60.0", fillcolor="#e5813999"] ;
353 -> 359 ;
360 [label="mse = 25.0\nsamples = 2\nvalue = 65.0", fillcolor="#e58139a6"] ;
359 -> 360 ;
361 [label="mse = 25.0\nsamples = 2\nvalue = 55.0", fillcolor="#e581398c"] ;
359 -> 361 ;
362 [label="mse = 0.0\nsamples = 3\nvalue = 50.0", fillcolor="#e5813980"] ;
352 -> 362 ;
363 [label="X[2] <= 12.5\nmse = 336.0\nsamples = 5\nvalue = 68.0", fillcolor="#e58139ad"] ;
315 -> 363 ;
364 [label="X[1] <= 37.5\nmse = 318.75\nsamples = 4\nvalue = 72.5", fillcolor="#e58139b9"] ;
363 -> 364 ;
365 [label="mse = 625.0\nsamples = 2\nvalue = 75.0", fillcolor="#e58139bf"] ;
364 -> 365 ;
366 [label="mse = 0.0\nsamples = 2\nvalue = 70.0", fillcolor="#e58139b2"] ;
364 -> 366 ;
367 [label="mse = 0.0\nsamples = 1\nvalue = 50.0", fillcolor="#e5813980"] ;
363 -> 367 ;
368 [label="mse = 0.0\nsamples = 1\nvalue = 15.0", fillcolor="#e5813926"] ;
314 -> 368 ;
369 [label="X[1] <= 23.5\nmse = 387.3594\nsamples = 40\nvalue = 60.875", fillcolor="#e581399b"] ;
313 -> 369 ;
370 [label="X[2] <= 14.5\nmse = 72.2222\nsamples = 3\nvalue = 81.6667", fillcolor="#e58139d0"] ;
369 -> 370 ;
371 [label="X[1] <= 21.5\nmse = 56.25\nsamples = 2\nvalue = 77.5", fillcolor="#e58139c6"] ;
370 -> 371 ;
372 [label="mse = 0.0\nsamples = 1\nvalue = 85.0", fillcolor="#e58139d9"] ;
371 -> 372 ;
373 [label="mse = 0.0\nsamples = 1\nvalue = 70.0", fillcolor="#e58139b2"] ;
371 -> 373 ;
374 [label="mse = 0.0\nsamples = 1\nvalue = 90.0", fillcolor="#e58139e6"] ;
370 -> 374 ;
375 [label="X[1] <= 27.0\nmse = 375.0183\nsamples = 37\nvalue = 59.1892", fillcolor="#e5813997"] ;
369 -> 375 ;
376 [label="X[2] <= 14.5\nmse = 688.7755\nsamples = 7\nvalue = 49.2857", fillcolor="#e581397e"] ;
375 -> 376 ;
377 [label="mse = 506.25\nsamples = 2\nvalue = 62.5", fillcolor="#e581399f"] ;
376 -> 377 ;
378 [label="X[2] <= 15.5\nmse = 664.0\nsamples = 5\nvalue = 44.0", fillcolor="#e5813970"] ;
376 -> 378 ;
379 [label="mse = 0.0\nsamples = 1\nvalue = 0.0", fillcolor="#e5813900"] ;
378 -> 379 ;
380 [label="X[1] <= 25.0\nmse = 225.0\nsamples = 4\nvalue = 55.0", fillcolor="#e581398c"] ;
378 -> 380 ;
381 [label="X[2] <= 16.5\nmse = 25.0\nsamples = 2\nvalue = 65.0", fillcolor="#e58139a6"] ;
380 -> 381 ;
382 [label="mse = 0.0\nsamples = 1\nvalue = 70.0", fillcolor="#e58139b2"] ;
381 -> 382 ;
383 [label="mse = 0.0\nsamples = 1\nvalue = 60.0", fillcolor="#e5813999"] ;
381 -> 383 ;
384 [label="X[2] <= 16.5\nmse = 225.0\nsamples = 2\nvalue = 45.0", fillcolor="#e5813973"] ;
380 -> 384 ;
385 [label="mse = 0.0\nsamples = 1\nvalue = 30.0", fillcolor="#e581394c"] ;
384 -> 385 ;
386 [label="mse = 0.0\nsamples = 1\nvalue = 60.0", fillcolor="#e5813999"] ;
384 -> 386 ;
387 [label="X[1] <= 31.5\nmse = 273.5833\nsamples = 30\nvalue = 61.5", fillcolor="#e581399d"] ;
375 -> 387 ;
388 [label="X[1] <= 30.5\nmse = 137.25\nsamples = 10\nvalue = 69.5", fillcolor="#e58139b1"] ;
387 -> 388 ;
389 [label="X[1] <= 29.0\nmse = 122.8395\nsamples = 9\nvalue = 67.7778", fillcolor="#e58139ad"] ;
388 -> 389 ;
390 [label="X[2] <= 15.5\nmse = 105.5556\nsamples = 3\nvalue = 71.6667", fillcolor="#e58139b7"] ;
389 -> 390 ;
391 [label="mse = 156.25\nsamples = 2\nvalue = 72.5", fillcolor="#e58139b9"] ;
390 -> 391 ;
392 [label="mse = 0.0\nsamples = 1\nvalue = 70.0", fillcolor="#e58139b2"] ;
390 -> 392 ;
393 [label="X[2] <= 16.5\nmse = 120.1389\nsamples = 6\nvalue = 65.8333", fillcolor="#e58139a8"] ;
389 -> 393 ;
394 [label="X[2] <= 14.5\nmse = 140.0\nsamples = 5\nvalue = 65.0", fillcolor="#e58139a6"] ;
393 -> 394 ;
395 [label="mse = 306.25\nsamples = 2\nvalue = 67.5", fillcolor="#e58139ac"] ;
394 -> 395 ;
396 [label="X[2] <= 15.5\nmse = 22.2222\nsamples = 3\nvalue = 63.3333", fillcolor="#e58139a2"] ;
394 -> 396 ;
397 [label="mse = 0.0\nsamples = 1\nvalue = 60.0", fillcolor="#e5813999"] ;
396 -> 397 ;
398 [label="mse = 25.0\nsamples = 2\nvalue = 65.0", fillcolor="#e58139a6"] ;
396 -> 398 ;
399 [label="mse = 0.0\nsamples = 1\nvalue = 70.0", fillcolor="#e58139b2"] ;
393 -> 399 ;
400 [label="mse = 0.0\nsamples = 1\nvalue = 85.0", fillcolor="#e58139d9"] ;
388 -> 400 ;
401 [label="X[1] <= 38.5\nmse = 293.75\nsamples = 20\nvalue = 57.5", fillcolor="#e5813993"] ;
387 -> 401 ;
402 [label="X[1] <= 33.5\nmse = 270.7562\nsamples = 18\nvalue = 55.2778", fillcolor="#e581398d"] ;
401 -> 402 ;
403 [label="X[2] <= 16.5\nmse = 255.5556\nsamples = 6\nvalue = 61.6667", fillcolor="#e581399d"] ;
402 -> 403 ;
404 [label="X[2] <= 15.0\nmse = 204.6875\nsamples = 4\nvalue = 58.75", fillcolor="#e5813996"] ;
403 -> 404 ;
405 [label="X[1] <= 32.5\nmse = 238.8889\nsamples = 3\nvalue = 61.6667", fillcolor="#e581399d"] ;
404 -> 405 ;
406 [label="mse = 225.0\nsamples = 2\nvalue = 55.0", fillcolor="#e581398c"] ;
405 -> 406 ;
407 [label="mse = 0.0\nsamples = 1\nvalue = 75.0", fillcolor="#e58139bf"] ;
405 -> 407 ;
408 [label="mse = 0.0\nsamples = 1\nvalue = 50.0", fillcolor="#e5813980"] ;
404 -> 408 ;
409 [label="mse = 306.25\nsamples = 2\nvalue = 67.5", fillcolor="#e58139ac"] ;
403 -> 409 ;
410 [label="X[1] <= 36.5\nmse = 247.7431\nsamples = 12\nvalue = 52.0833", fillcolor="#e5813985"] ;
402 -> 410 ;
411 [label="X[1] <= 35.0\nmse = 229.6875\nsamples = 4\nvalue = 41.25", fillcolor="#e5813969"] ;
410 -> 411 ;
412 [label="mse = 0.0\nsamples = 1\nvalue = 50.0", fillcolor="#e5813980"] ;
411 -> 412 ;
413 [label="X[2] <= 15.0\nmse = 272.2222\nsamples = 3\nvalue = 38.3333", fillcolor="#e5813962"] ;
411 -> 413 ;
414 [label="mse = 306.25\nsamples = 2\nvalue = 32.5", fillcolor="#e5813953"] ;
413 -> 414 ;
415 [label="mse = 0.0\nsamples = 1\nvalue = 50.0", fillcolor="#e5813980"] ;
413 -> 415 ;
416 [label="X[1] <= 37.5\nmse = 168.75\nsamples = 8\nvalue = 57.5", fillcolor="#e5813993"] ;
410 -> 416 ;
417 [label="X[2] <= 16.5\nmse = 147.2222\nsamples = 6\nvalue = 61.6667", fillcolor="#e581399d"] ;
416 -> 417 ;
418 [label="X[2] <= 15.0\nmse = 144.0\nsamples = 5\nvalue = 64.0", fillcolor="#e58139a3"] ;
417 -> 418 ;
419 [label="mse = 168.75\nsamples = 4\nvalue = 62.5", fillcolor="#e581399f"] ;
418 -> 419 ;
420 [label="mse = 0.0\nsamples = 1\nvalue = 70.0", fillcolor="#e58139b2"] ;
418 -> 420 ;
421 [label="mse = 0.0\nsamples = 1\nvalue = 50.0", fillcolor="#e5813980"] ;
417 -> 421 ;
422 [label="X[2] <= 15.0\nmse = 25.0\nsamples = 2\nvalue = 45.0", fillcolor="#e5813973"] ;
416 -> 422 ;
423 [label="mse = 0.0\nsamples = 1\nvalue = 40.0", fillcolor="#e5813966"] ;
422 -> 423 ;
424 [label="mse = 0.0\nsamples = 1\nvalue = 50.0", fillcolor="#e5813980"] ;
422 -> 424 ;
425 [label="X[2] <= 15.0\nmse = 56.25\nsamples = 2\nvalue = 77.5", fillcolor="#e58139c6"] ;
401 -> 425 ;
426 [label="mse = 0.0\nsamples = 1\nvalue = 70.0", fillcolor="#e58139b2"] ;
425 -> 426 ;
427 [label="mse = 0.0\nsamples = 1\nvalue = 85.0", fillcolor="#e58139d9"] ;
425 -> 427 ;
428 [label="X[2] <= 12.5\nmse = 423.0955\nsamples = 136\nvalue = 62.7574", fillcolor="#e58139a0"] ;
306 -> 428 ;
429 [label="X[1] <= 41.5\nmse = 392.5078\nsamples = 62\nvalue = 65.4839", fillcolor="#e58139a7"] ;
428 -> 429 ;
430 [label="X[2] <= 10.5\nmse = 258.3333\nsamples = 6\nvalue = 55.0", fillcolor="#e581398c"] ;
429 -> 430 ;
431 [label="mse = 0.0\nsamples = 1\nvalue = 30.0", fillcolor="#e581394c"] ;
430 -> 431 ;
432 [label="X[1] <= 40.5\nmse = 160.0\nsamples = 5\nvalue = 60.0", fillcolor="#e5813999"] ;
430 -> 432 ;
433 [label="mse = 75.0\nsamples = 4\nvalue = 65.0", fillcolor="#e58139a6"] ;
432 -> 433 ;
434 [label="mse = 0.0\nsamples = 1\nvalue = 40.0", fillcolor="#e5813966"] ;
432 -> 434 ;
435 [label="X[1] <= 85.0\nmse = 393.8457\nsamples = 56\nvalue = 66.6071", fillcolor="#e58139aa"] ;
429 -> 435 ;
436 [label="X[1] <= 83.0\nmse = 330.7761\nsamples = 53\nvalue = 67.4528", fillcolor="#e58139ac"] ;
435 -> 436 ;
437 [label="X[1] <= 60.5\nmse = 316.3739\nsamples = 52\nvalue = 66.8269", fillcolor="#e58139aa"] ;
436 -> 437 ;
438 [label="X[1] <= 44.0\nmse = 322.36\nsamples = 33\nvalue = 64.3939", fillcolor="#e58139a4"] ;
437 -> 438 ;
439 [label="X[2] <= 9.0\nmse = 138.8889\nsamples = 3\nvalue = 76.6667", fillcolor="#e58139c4"] ;
438 -> 439 ;
440 [label="mse = 0.0\nsamples = 1\nvalue = 60.0", fillcolor="#e5813999"] ;
439 -> 440 ;
441 [label="mse = 0.0\nsamples = 2\nvalue = 85.0", fillcolor="#e58139d9"] ;
439 -> 441 ;
442 [label="X[2] <= 11.5\nmse = 324.1389\nsamples = 30\nvalue = 63.1667", fillcolor="#e58139a1"] ;
438 -> 442 ;
443 [label="X[2] <= 10.5\nmse = 379.6875\nsamples = 8\nvalue = 68.75", fillcolor="#e58139af"] ;
442 -> 443 ;
444 [label="X[1] <= 55.0\nmse = 366.0\nsamples = 5\nvalue = 62.0", fillcolor="#e581399e"] ;
443 -> 444 ;
445 [label="X[1] <= 50.5\nmse = 412.5\nsamples = 4\nvalue = 65.0", fillcolor="#e58139a6"] ;
444 -> 445 ;
446 [label="X[1] <= 46.5\nmse = 372.2222\nsamples = 3\nvalue = 58.3333", fillcolor="#e5813995"] ;
445 -> 446 ;
447 [label="X[2] <= 8.5\nmse = 306.25\nsamples = 2\nvalue = 67.5", fillcolor="#e58139ac"] ;
446 -> 447 ;
448 [label="mse = 0.0\nsamples = 1\nvalue = 50.0", fillcolor="#e5813980"] ;
447 -> 448 ;
449 [label="mse = 0.0\nsamples = 1\nvalue = 85.0", fillcolor="#e58139d9"] ;
447 -> 449 ;
450 [label="mse = 0.0\nsamples = 1\nvalue = 40.0", fillcolor="#e5813966"] ;
446 -> 450 ;
451 [label="mse = 0.0\nsamples = 1\nvalue = 85.0", fillcolor="#e58139d9"] ;
445 -> 451 ;
452 [label="mse = 0.0\nsamples = 1\nvalue = 50.0", fillcolor="#e5813980"] ;
444 -> 452 ;
453 [label="X[1] <= 51.0\nmse = 200.0\nsamples = 3\nvalue = 80.0", fillcolor="#e58139cc"] ;
443 -> 453 ;
454 [label="mse = 0.0\nsamples = 1\nvalue = 100.0", fillcolor="#e58139ff"] ;
453 -> 454 ;
455 [label="mse = 0.0\nsamples = 2\nvalue = 70.0", fillcolor="#e58139b2"] ;
453 -> 455 ;
456 [label="X[1] <= 46.5\nmse = 288.4814\nsamples = 22\nvalue = 61.1364", fillcolor="#e581399c"] ;
442 -> 456 ;
457 [label="mse = 0.0\nsamples = 2\nvalue = 50.0", fillcolor="#e5813980"] ;
456 -> 457 ;
458 [label="X[1] <= 59.5\nmse = 303.6875\nsamples = 20\nvalue = 62.25", fillcolor="#e581399f"] ;
456 -> 458 ;
459 [label="X[1] <= 58.5\nmse = 311.3573\nsamples = 19\nvalue = 62.8947", fillcolor="#e58139a0"] ;
458 -> 459 ;
460 [label="X[1] <= 55.5\nmse = 245.9961\nsamples = 16\nvalue = 61.5625", fillcolor="#e581399d"] ;
459 -> 460 ;
461 [label="X[1] <= 52.0\nmse = 308.2645\nsamples = 11\nvalue = 64.0909", fillcolor="#e58139a3"] ;
460 -> 461 ;
462 [label="X[1] <= 49.0\nmse = 229.6875\nsamples = 4\nvalue = 58.75", fillcolor="#e5813996"] ;
461 -> 462 ;
463 [label="mse = 306.25\nsamples = 2\nvalue = 67.5", fillcolor="#e58139ac"] ;
462 -> 463 ;
464 [label="mse = 0.0\nsamples = 2\nvalue = 50.0", fillcolor="#e5813980"] ;
462 -> 464 ;
465 [label="X[1] <= 53.5\nmse = 327.551\nsamples = 7\nvalue = 67.1429", fillcolor="#e58139ab"] ;
461 -> 465 ;
466 [label="mse = 279.6875\nsamples = 4\nvalue = 71.25", fillcolor="#e58139b6"] ;
465 -> 466 ;
467 [label="X[1] <= 54.5\nmse = 338.8889\nsamples = 3\nvalue = 61.6667", fillcolor="#e581399d"] ;
465 -> 467 ;
468 [label="mse = 0.0\nsamples = 1\nvalue = 60.0", fillcolor="#e5813999"] ;
467 -> 468 ;
469 [label="mse = 506.25\nsamples = 2\nvalue = 62.5", fillcolor="#e581399f"] ;
467 -> 469 ;
470 [label="X[1] <= 56.5\nmse = 64.0\nsamples = 5\nvalue = 56.0", fillcolor="#e581398f"] ;
460 -> 470 ;
471 [label="mse = 0.0\nsamples = 2\nvalue = 50.0", fillcolor="#e5813980"] ;
470 -> 471 ;
472 [label="X[1] <= 57.5\nmse = 66.6667\nsamples = 3\nvalue = 60.0", fillcolor="#e5813999"] ;
470 -> 472 ;
473 [label="mse = 100.0\nsamples = 2\nvalue = 60.0", fillcolor="#e5813999"] ;
472 -> 473 ;
474 [label="mse = 0.0\nsamples = 1\nvalue = 60.0", fillcolor="#e5813999"] ;
472 -> 474 ;
475 [label="mse = 600.0\nsamples = 3\nvalue = 70.0", fillcolor="#e58139b2"] ;
459 -> 475 ;
476 [label="mse = 0.0\nsamples = 1\nvalue = 50.0", fillcolor="#e5813980"] ;
458 -> 476 ;
477 [label="X[1] <= 63.5\nmse = 277.8393\nsamples = 19\nvalue = 71.0526", fillcolor="#e58139b5"] ;
437 -> 477 ;
478 [label="X[2] <= 11.5\nmse = 245.1389\nsamples = 6\nvalue = 79.1667", fillcolor="#e58139ca"] ;
477 -> 478 ;
479 [label="X[1] <= 61.5\nmse = 150.0\nsamples = 3\nvalue = 85.0", fillcolor="#e58139d9"] ;
478 -> 479 ;
480 [label="mse = 0.0\nsamples = 1\nvalue = 70.0", fillcolor="#e58139b2"] ;
479 -> 480 ;
481 [label="X[1] <= 62.5\nmse = 56.25\nsamples = 2\nvalue = 92.5", fillcolor="#e58139ec"] ;
479 -> 481 ;
482 [label="mse = 0.0\nsamples = 1\nvalue = 85.0", fillcolor="#e58139d9"] ;
481 -> 482 ;
483 [label="mse = 0.0\nsamples = 1\nvalue = 100.0", fillcolor="#e58139ff"] ;
481 -> 483 ;
484 [label="X[1] <= 62.5\nmse = 272.2222\nsamples = 3\nvalue = 73.3333", fillcolor="#e58139bb"] ;
478 -> 484 ;
485 [label="mse = 0.0\nsamples = 1\nvalue = 85.0", fillcolor="#e58139d9"] ;
484 -> 485 ;
486 [label="mse = 306.25\nsamples = 2\nvalue = 67.5", fillcolor="#e58139ac"] ;
484 -> 486 ;
487 [label="X[1] <= 68.0\nmse = 248.5207\nsamples = 13\nvalue = 67.3077", fillcolor="#e58139ac"] ;
477 -> 487 ;
488 [label="X[1] <= 65.0\nmse = 118.75\nsamples = 4\nvalue = 57.5", fillcolor="#e5813993"] ;
487 -> 488 ;
489 [label="mse = 225.0\nsamples = 2\nvalue = 55.0", fillcolor="#e581398c"] ;
488 -> 489 ;
490 [label="mse = 0.0\nsamples = 2\nvalue = 60.0", fillcolor="#e5813999"] ;
488 -> 490 ;
491 [label="X[1] <= 77.5\nmse = 244.4444\nsamples = 9\nvalue = 71.6667", fillcolor="#e58139b7"] ;
487 -> 491 ;
492 [label="X[1] <= 73.5\nmse = 264.2857\nsamples = 7\nvalue = 75.0", fillcolor="#e58139bf"] ;
491 -> 492 ;
493 [label="X[2] <= 9.0\nmse = 154.6875\nsamples = 4\nvalue = 68.75", fillcolor="#e58139af"] ;
492 -> 493 ;
494 [label="mse = 0.0\nsamples = 1\nvalue = 70.0", fillcolor="#e58139b2"] ;
493 -> 494 ;
495 [label="X[1] <= 71.0\nmse = 205.5556\nsamples = 3\nvalue = 68.3333", fillcolor="#e58139ae"] ;
493 -> 495 ;
496 [label="mse = 306.25\nsamples = 2\nvalue = 67.5", fillcolor="#e58139ac"] ;
495 -> 496 ;
497 [label="mse = 0.0\nsamples = 1\nvalue = 70.0", fillcolor="#e58139b2"] ;
495 -> 497 ;
498 [label="X[2] <= 11.0\nmse = 288.8889\nsamples = 3\nvalue = 83.3333", fillcolor="#e58139d4"] ;
492 -> 498 ;
499 [label="mse = 225.0\nsamples = 2\nvalue = 75.0", fillcolor="#e58139bf"] ;
498 -> 499 ;
500 [label="mse = 0.0\nsamples = 1\nvalue = 100.0", fillcolor="#e58139ff"] ;
498 -> 500 ;
501 [label="mse = 0.0\nsamples = 2\nvalue = 60.0", fillcolor="#e5813999"] ;
491 -> 501 ;
502 [label="mse = 0.0\nsamples = 1\nvalue = 100.0", fillcolor="#e58139ff"] ;
436 -> 502 ;
503 [label="mse = 1272.2222\nsamples = 3\nvalue = 51.6667", fillcolor="#e5813984"] ;
435 -> 503 ;
504 [label="X[1] <= 41.5\nmse = 437.2763\nsamples = 74\nvalue = 60.473", fillcolor="#e581399a"] ;
428 -> 504 ;
505 [label="X[2] <= 16.0\nmse = 144.0\nsamples = 5\nvalue = 79.0", fillcolor="#e58139c9"] ;
504 -> 505 ;
506 [label="X[1] <= 40.5\nmse = 50.0\nsamples = 3\nvalue = 75.0", fillcolor="#e58139bf"] ;
505 -> 506 ;
507 [label="mse = 56.25\nsamples = 2\nvalue = 77.5", fillcolor="#e58139c6"] ;
506 -> 507 ;
508 [label="mse = 0.0\nsamples = 1\nvalue = 70.0", fillcolor="#e58139b2"] ;
506 -> 508 ;
509 [label="mse = 225.0\nsamples = 2\nvalue = 85.0", fillcolor="#e58139d9"] ;
505 -> 509 ;
510 [label="X[1] <= 60.5\nmse = 431.8526\nsamples = 69\nvalue = 59.1304", fillcolor="#e5813997"] ;
504 -> 510 ;
511 [label="X[2] <= 14.5\nmse = 354.8889\nsamples = 45\nvalue = 61.3333", fillcolor="#e581399c"] ;
510 -> 511 ;
512 [label="X[1] <= 47.5\nmse = 167.8005\nsamples = 21\nvalue = 56.9048", fillcolor="#e5813991"] ;
511 -> 512 ;
513 [label="X[1] <= 46.5\nmse = 247.2222\nsamples = 6\nvalue = 48.3333", fillcolor="#e581397b"] ;
512 -> 513 ;
514 [label="X[1] <= 44.0\nmse = 216.0\nsamples = 5\nvalue = 52.0", fillcolor="#e5813985"] ;
513 -> 514 ;
515 [label="mse = 0.0\nsamples = 1\nvalue = 40.0", fillcolor="#e5813966"] ;
514 -> 515 ;
516 [label="X[2] <= 13.5\nmse = 225.0\nsamples = 4\nvalue = 55.0", fillcolor="#e581398c"] ;
514 -> 516 ;
517 [label="mse = 0.0\nsamples = 1\nvalue = 60.0", fillcolor="#e5813999"] ;
516 -> 517 ;
518 [label="mse = 288.8889\nsamples = 3\nvalue = 53.3333", fillcolor="#e5813988"] ;
516 -> 518 ;
519 [label="mse = 0.0\nsamples = 1\nvalue = 30.0", fillcolor="#e581394c"] ;
513 -> 519 ;
520 [label="X[1] <= 52.5\nmse = 94.8889\nsamples = 15\nvalue = 60.3333", fillcolor="#e581399a"] ;
512 -> 520 ;
521 [label="X[1] <= 48.5\nmse = 56.0\nsamples = 10\nvalue = 58.0", fillcolor="#e5813994"] ;
520 -> 521 ;
522 [label="X[2] <= 13.5\nmse = 25.0\nsamples = 2\nvalue = 65.0", fillcolor="#e58139a6"] ;
521 -> 522 ;
523 [label="mse = 0.0\nsamples = 1\nvalue = 60.0", fillcolor="#e5813999"] ;
522 -> 523 ;
524 [label="mse = 0.0\nsamples = 1\nvalue = 70.0", fillcolor="#e58139b2"] ;
522 -> 524 ;
525 [label="X[1] <= 50.5\nmse = 48.4375\nsamples = 8\nvalue = 56.25", fillcolor="#e581398f"] ;
521 -> 525 ;
526 [label="X[2] <= 13.5\nmse = 68.75\nsamples = 4\nvalue = 57.5", fillcolor="#e5813993"] ;
525 -> 526 ;
527 [label="mse = 100.0\nsamples = 2\nvalue = 60.0", fillcolor="#e5813999"] ;
526 -> 527 ;
528 [label="X[1] <= 49.5\nmse = 25.0\nsamples = 2\nvalue = 55.0", fillcolor="#e581398c"] ;
526 -> 528 ;
529 [label="mse = 0.0\nsamples = 1\nvalue = 50.0", fillcolor="#e5813980"] ;
528 -> 529 ;
530 [label="mse = 0.0\nsamples = 1\nvalue = 60.0", fillcolor="#e5813999"] ;
528 -> 530 ;
531 [label="X[2] <= 13.5\nmse = 25.0\nsamples = 4\nvalue = 55.0", fillcolor="#e581398c"] ;
525 -> 531 ;
532 [label="mse = 0.0\nsamples = 1\nvalue = 50.0", fillcolor="#e5813980"] ;
531 -> 532 ;
533 [label="mse = 22.2222\nsamples = 3\nvalue = 56.6667", fillcolor="#e5813990"] ;
531 -> 533 ;
534 [label="X[2] <= 13.5\nmse = 140.0\nsamples = 5\nvalue = 65.0", fillcolor="#e58139a6"] ;
520 -> 534 ;
535 [label="X[1] <= 56.5\nmse = 22.2222\nsamples = 3\nvalue = 56.6667", fillcolor="#e5813990"] ;
534 -> 535 ;
536 [label="mse = 0.0\nsamples = 1\nvalue = 50.0", fillcolor="#e5813980"] ;
535 -> 536 ;
537 [label="mse = 0.0\nsamples = 2\nvalue = 60.0", fillcolor="#e5813999"] ;
535 -> 537 ;
538 [label="X[1] <= 56.0\nmse = 56.25\nsamples = 2\nvalue = 77.5", fillcolor="#e58139c6"] ;
534 -> 538 ;
539 [label="mse = 0.0\nsamples = 1\nvalue = 85.0", fillcolor="#e58139d9"] ;
538 -> 539 ;
540 [label="mse = 0.0\nsamples = 1\nvalue = 70.0", fillcolor="#e58139b2"] ;
538 -> 540 ;
541 [label="X[2] <= 16.5\nmse = 486.4149\nsamples = 24\nvalue = 65.2083", fillcolor="#e58139a6"] ;
511 -> 541 ;
542 [label="X[1] <= 53.5\nmse = 409.5556\nsamples = 15\nvalue = 69.3333", fillcolor="#e58139b1"] ;
541 -> 542 ;
543 [label="X[1] <= 51.0\nmse = 279.6875\nsamples = 8\nvalue = 76.25", fillcolor="#e58139c2"] ;
542 -> 543 ;
544 [label="X[1] <= 48.5\nmse = 263.8889\nsamples = 6\nvalue = 73.3333", fillcolor="#e58139bb"] ;
543 -> 544 ;
545 [label="X[1] <= 44.5\nmse = 186.0\nsamples = 5\nvalue = 78.0", fillcolor="#e58139c7"] ;
544 -> 545 ;
546 [label="mse = 400.0\nsamples = 2\nvalue = 80.0", fillcolor="#e58139cc"] ;
545 -> 546 ;
547 [label="X[1] <= 46.0\nmse = 38.8889\nsamples = 3\nvalue = 76.6667", fillcolor="#e58139c4"] ;
545 -> 547 ;
548 [label="mse = 0.0\nsamples = 1\nvalue = 70.0", fillcolor="#e58139b2"] ;
547 -> 548 ;
549 [label="mse = 25.0\nsamples = 2\nvalue = 80.0", fillcolor="#e58139cc"] ;
547 -> 549 ;
550 [label="mse = 0.0\nsamples = 1\nvalue = 50.0", fillcolor="#e5813980"] ;
544 -> 550 ;
551 [label="X[1] <= 52.5\nmse = 225.0\nsamples = 2\nvalue = 85.0", fillcolor="#e58139d9"] ;
543 -> 551 ;
552 [label="mse = 0.0\nsamples = 1\nvalue = 100.0", fillcolor="#e58139ff"] ;
551 -> 552 ;
553 [label="mse = 0.0\nsamples = 1\nvalue = 70.0", fillcolor="#e58139b2"] ;
551 -> 553 ;
554 [label="X[2] <= 15.5\nmse = 440.8163\nsamples = 7\nvalue = 61.4286", fillcolor="#e581399d"] ;
542 -> 554 ;
555 [label="X[1] <= 55.0\nmse = 225.0\nsamples = 2\nvalue = 45.0", fillcolor="#e5813973"] ;
554 -> 555 ;
556 [label="mse = 0.0\nsamples = 1\nvalue = 30.0", fillcolor="#e581394c"] ;
555 -> 556 ;
557 [label="mse = 0.0\nsamples = 1\nvalue = 60.0", fillcolor="#e5813999"] ;
555 -> 557 ;
558 [label="X[1] <= 54.5\nmse = 376.0\nsamples = 5\nvalue = 68.0", fillcolor="#e58139ad"] ;
554 -> 558 ;
559 [label="mse = 0.0\nsamples = 1\nvalue = 100.0", fillcolor="#e58139ff"] ;
558 -> 559 ;
560 [label="X[1] <= 55.5\nmse = 150.0\nsamples = 4\nvalue = 60.0", fillcolor="#e5813999"] ;
558 -> 560 ;
561 [label="mse = 0.0\nsamples = 1\nvalue = 70.0", fillcolor="#e58139b2"] ;
560 -> 561 ;
562 [label="X[1] <= 56.5\nmse = 155.5556\nsamples = 3\nvalue = 56.6667", fillcolor="#e5813990"] ;
560 -> 562 ;
563 [label="mse = 0.0\nsamples = 1\nvalue = 40.0", fillcolor="#e5813966"] ;
562 -> 563 ;
564 [label="X[1] <= 57.5\nmse = 25.0\nsamples = 2\nvalue = 65.0", fillcolor="#e58139a6"] ;
562 -> 564 ;
565 [label="mse = 0.0\nsamples = 1\nvalue = 70.0", fillcolor="#e58139b2"] ;
564 -> 565 ;
566 [label="mse = 0.0\nsamples = 1\nvalue = 60.0", fillcolor="#e5813999"] ;
564 -> 566 ;
567 [label="X[1] <= 49.5\nmse = 538.8889\nsamples = 9\nvalue = 58.3333", fillcolor="#e5813995"] ;
541 -> 567 ;
568 [label="X[1] <= 46.5\nmse = 25.0\nsamples = 2\nvalue = 35.0", fillcolor="#e5813959"] ;
567 -> 568 ;
569 [label="mse = 0.0\nsamples = 1\nvalue = 30.0", fillcolor="#e581394c"] ;
568 -> 569 ;
570 [label="mse = 0.0\nsamples = 1\nvalue = 40.0", fillcolor="#e5813966"] ;
568 -> 570 ;
571 [label="X[1] <= 53.5\nmse = 485.7143\nsamples = 7\nvalue = 65.0", fillcolor="#e58139a6"] ;
567 -> 571 ;
572 [label="X[1] <= 50.5\nmse = 56.25\nsamples = 2\nvalue = 77.5", fillcolor="#e58139c6"] ;
571 -> 572 ;
573 [label="mse = 0.0\nsamples = 1\nvalue = 70.0", fillcolor="#e58139b2"] ;
572 -> 573 ;
574 [label="mse = 0.0\nsamples = 1\nvalue = 85.0", fillcolor="#e58139d9"] ;
572 -> 574 ;
575 [label="X[1] <= 57.5\nmse = 570.0\nsamples = 5\nvalue = 60.0", fillcolor="#e5813999"] ;
571 -> 575 ;
576 [label="X[1] <= 56.5\nmse = 572.2222\nsamples = 3\nvalue = 48.3333", fillcolor="#e581397b"] ;
575 -> 576 ;
577 [label="mse = 25.0\nsamples = 2\nvalue = 65.0", fillcolor="#e58139a6"] ;
576 -> 577 ;
578 [label="mse = 0.0\nsamples = 1\nvalue = 15.0", fillcolor="#e5813926"] ;
576 -> 578 ;
579 [label="X[1] <= 59.0\nmse = 56.25\nsamples = 2\nvalue = 77.5", fillcolor="#e58139c6"] ;
575 -> 579 ;
580 [label="mse = 0.0\nsamples = 1\nvalue = 85.0", fillcolor="#e58139d9"] ;
579 -> 580 ;
581 [label="mse = 0.0\nsamples = 1\nvalue = 70.0", fillcolor="#e58139b2"] ;
579 -> 581 ;
582 [label="X[1] <= 62.5\nmse = 550.0\nsamples = 24\nvalue = 55.0", fillcolor="#e581398c"] ;
510 -> 582 ;
583 [label="X[2] <= 15.5\nmse = 400.0\nsamples = 2\nvalue = 20.0", fillcolor="#e5813933"] ;
582 -> 583 ;
584 [label="mse = 0.0\nsamples = 1\nvalue = 0.0", fillcolor="#e5813900"] ;
583 -> 584 ;
585 [label="mse = 0.0\nsamples = 1\nvalue = 40.0", fillcolor="#e5813966"] ;
583 -> 585 ;
586 [label="X[1] <= 74.5\nmse = 442.1488\nsamples = 22\nvalue = 58.1818", fillcolor="#e5813994"] ;
582 -> 586 ;
587 [label="X[1] <= 68.5\nmse = 483.0247\nsamples = 18\nvalue = 60.5556", fillcolor="#e581399a"] ;
586 -> 587 ;
588 [label="X[2] <= 14.5\nmse = 536.3905\nsamples = 13\nvalue = 55.3846", fillcolor="#e581398d"] ;
587 -> 588 ;
589 [label="X[2] <= 13.5\nmse = 68.75\nsamples = 4\nvalue = 62.5", fillcolor="#e581399f"] ;
588 -> 589 ;
590 [label="X[1] <= 63.5\nmse = 66.6667\nsamples = 3\nvalue = 60.0", fillcolor="#e5813999"] ;
589 -> 590 ;
591 [label="mse = 0.0\nsamples = 1\nvalue = 50.0", fillcolor="#e5813980"] ;
590 -> 591 ;
592 [label="X[1] <= 66.0\nmse = 25.0\nsamples = 2\nvalue = 65.0", fillcolor="#e58139a6"] ;
590 -> 592 ;
593 [label="mse = 0.0\nsamples = 1\nvalue = 70.0", fillcolor="#e58139b2"] ;
592 -> 593 ;
594 [label="mse = 0.0\nsamples = 1\nvalue = 60.0", fillcolor="#e5813999"] ;
592 -> 594 ;
595 [label="mse = 0.0\nsamples = 1\nvalue = 70.0", fillcolor="#e58139b2"] ;
589 -> 595 ;
596 [label="X[1] <= 66.5\nmse = 711.7284\nsamples = 9\nvalue = 52.2222", fillcolor="#e5813985"] ;
588 -> 596 ;
597 [label="X[2] <= 15.5\nmse = 1074.0\nsamples = 5\nvalue = 46.0", fillcolor="#e5813975"] ;
596 -> 597 ;
598 [label="mse = 756.25\nsamples = 2\nvalue = 42.5", fillcolor="#e581396c"] ;
597 -> 598 ;
599 [label="X[2] <= 16.5\nmse = 1272.2222\nsamples = 3\nvalue = 48.3333", fillcolor="#e581397b"] ;
597 -> 599 ;
600 [label="mse = 0.0\nsamples = 1\nvalue = 60.0", fillcolor="#e5813999"] ;
599 -> 600 ;
601 [label="mse = 1806.25\nsamples = 2\nvalue = 42.5", fillcolor="#e581396c"] ;
599 -> 601 ;
602 [label="X[2] <= 16.5\nmse = 150.0\nsamples = 4\nvalue = 60.0", fillcolor="#e5813999"] ;
596 -> 602 ;
603 [label="mse = 225.0\nsamples = 2\nvalue = 55.0", fillcolor="#e581398c"] ;
602 -> 603 ;
604 [label="X[1] <= 67.5\nmse = 25.0\nsamples = 2\nvalue = 65.0", fillcolor="#e58139a6"] ;
602 -> 604 ;
605 [label="mse = 0.0\nsamples = 1\nvalue = 70.0", fillcolor="#e58139b2"] ;
604 -> 605 ;
606 [label="mse = 0.0\nsamples = 1\nvalue = 60.0", fillcolor="#e5813999"] ;
604 -> 606 ;
607 [label="X[1] <= 71.5\nmse = 94.0\nsamples = 5\nvalue = 74.0", fillcolor="#e58139bd"] ;
587 -> 607 ;
608 [label="X[1] <= 70.0\nmse = 79.6875\nsamples = 4\nvalue = 71.25", fillcolor="#e58139b6"] ;
607 -> 608 ;
609 [label="X[2] <= 13.5\nmse = 56.25\nsamples = 2\nvalue = 77.5", fillcolor="#e58139c6"] ;
608 -> 609 ;
610 [label="mse = 0.0\nsamples = 1\nvalue = 85.0", fillcolor="#e58139d9"] ;
609 -> 610 ;
611 [label="mse = 0.0\nsamples = 1\nvalue = 70.0", fillcolor="#e58139b2"] ;
609 -> 611 ;
612 [label="X[2] <= 15.0\nmse = 25.0\nsamples = 2\nvalue = 65.0", fillcolor="#e58139a6"] ;
608 -> 612 ;
613 [label="mse = 0.0\nsamples = 1\nvalue = 60.0", fillcolor="#e5813999"] ;
612 -> 613 ;
614 [label="mse = 0.0\nsamples = 1\nvalue = 70.0", fillcolor="#e58139b2"] ;
612 -> 614 ;
615 [label="mse = 0.0\nsamples = 1\nvalue = 85.0", fillcolor="#e58139d9"] ;
607 -> 615 ;
616 [label="X[1] <= 78.5\nmse = 118.75\nsamples = 4\nvalue = 47.5", fillcolor="#e5813979"] ;
586 -> 616 ;
617 [label="X[2] <= 15.5\nmse = 88.8889\nsamples = 3\nvalue = 43.3333", fillcolor="#e581396e"] ;
616 -> 617 ;
618 [label="mse = 0.0\nsamples = 2\nvalue = 50.0", fillcolor="#e5813980"] ;
617 -> 618 ;
619 [label="mse = 0.0\nsamples = 1\nvalue = 30.0", fillcolor="#e581394c"] ;
617 -> 619 ;
620 [label="mse = 0.0\nsamples = 1\nvalue = 60.0", fillcolor="#e5813999"] ;
616 -> 620 ;
621 [label="X[0] <= 0.5\nmse = 432.6229\nsamples = 256\nvalue = 41.7383", fillcolor="#e581396a"] ;
1 -> 621 ;
622 [label="X[2] <= 10.5\nmse = 456.7751\nsamples = 123\nvalue = 38.3333", fillcolor="#e5813962"] ;
621 -> 622 ;
623 [label="X[1] <= 60.5\nmse = 104.0\nsamples = 5\nvalue = 61.0", fillcolor="#e581399c"] ;
622 -> 623 ;
624 [label="mse = 0.0\nsamples = 1\nvalue = 50.0", fillcolor="#e5813980"] ;
623 -> 624 ;
625 [label="X[1] <= 89.5\nmse = 92.1875\nsamples = 4\nvalue = 63.75", fillcolor="#e58139a3"] ;
623 -> 625 ;
626 [label="X[1] <= 74.5\nmse = 38.8889\nsamples = 3\nvalue = 68.3333", fillcolor="#e58139ae"] ;
625 -> 626 ;
627 [label="mse = 0.0\nsamples = 1\nvalue = 60.0", fillcolor="#e5813999"] ;
626 -> 627 ;
628 [label="X[2] <= 8.5\nmse = 6.25\nsamples = 2\nvalue = 72.5", fillcolor="#e58139b9"] ;
626 -> 628 ;
629 [label="mse = 0.0\nsamples = 1\nvalue = 70.0", fillcolor="#e58139b2"] ;
628 -> 629 ;
630 [label="mse = 0.0\nsamples = 1\nvalue = 75.0", fillcolor="#e58139bf"] ;
628 -> 630 ;
631 [label="mse = 0.0\nsamples = 1\nvalue = 50.0", fillcolor="#e5813980"] ;
625 -> 631 ;
632 [label="X[1] <= 43.5\nmse = 449.0305\nsamples = 118\nvalue = 37.3729", fillcolor="#e581395f"] ;
622 -> 632 ;
633 [label="X[1] <= 41.5\nmse = 386.0119\nsamples = 42\nvalue = 42.5", fillcolor="#e581396c"] ;
632 -> 633 ;
634 [label="X[1] <= 40.0\nmse = 385.7514\nsamples = 38\nvalue = 40.6579", fillcolor="#e5813968"] ;
633 -> 634 ;
635 [label="X[2] <= 15.5\nmse = 356.0764\nsamples = 36\nvalue = 42.0833", fillcolor="#e581396b"] ;
634 -> 635 ;
636 [label="X[1] <= 35.5\nmse = 360.4915\nsamples = 23\nvalue = 37.8261", fillcolor="#e5813960"] ;
635 -> 636 ;
637 [label="X[1] <= 22.5\nmse = 313.8504\nsamples = 19\nvalue = 40.7895", fillcolor="#e5813968"] ;
636 -> 637 ;
638 [label="X[1] <= 21.5\nmse = 505.5556\nsamples = 6\nvalue = 31.6667", fillcolor="#e5813951"] ;
637 -> 638 ;
639 [label="X[2] <= 13.5\nmse = 292.1875\nsamples = 4\nvalue = 43.75", fillcolor="#e5813970"] ;
638 -> 639 ;
640 [label="X[2] <= 12.5\nmse = 25.0\nsamples = 2\nvalue = 55.0", fillcolor="#e581398c"] ;
639 -> 640 ;
641 [label="mse = 0.0\nsamples = 1\nvalue = 50.0", fillcolor="#e5813980"] ;
640 -> 641 ;
642 [label="mse = 0.0\nsamples = 1\nvalue = 60.0", fillcolor="#e5813999"] ;
640 -> 642 ;
643 [label="X[2] <= 14.5\nmse = 306.25\nsamples = 2\nvalue = 32.5", fillcolor="#e5813953"] ;
639 -> 643 ;
644 [label="mse = 0.0\nsamples = 1\nvalue = 15.0", fillcolor="#e5813926"] ;
643 -> 644 ;
645 [label="mse = 0.0\nsamples = 1\nvalue = 50.0", fillcolor="#e5813980"] ;
643 -> 645 ;
646 [label="X[2] <= 13.5\nmse = 56.25\nsamples = 2\nvalue = 7.5", fillcolor="#e5813913"] ;
638 -> 646 ;
647 [label="mse = 0.0\nsamples = 1\nvalue = 15.0", fillcolor="#e5813926"] ;
646 -> 647 ;
648 [label="mse = 0.0\nsamples = 1\nvalue = 0.0", fillcolor="#e5813900"] ;
646 -> 648 ;
649 [label="X[2] <= 12.5\nmse = 169.2308\nsamples = 13\nvalue = 45.0", fillcolor="#e5813973"] ;
637 -> 649 ;
650 [label="X[1] <= 33.5\nmse = 56.0\nsamples = 5\nvalue = 38.0", fillcolor="#e5813961"] ;
649 -> 650 ;
651 [label="X[1] <= 28.0\nmse = 25.0\nsamples = 4\nvalue = 35.0", fillcolor="#e5813959"] ;
650 -> 651 ;
652 [label="mse = 0.0\nsamples = 2\nvalue = 40.0", fillcolor="#e5813966"] ;
651 -> 652 ;
653 [label="mse = 0.0\nsamples = 2\nvalue = 30.0", fillcolor="#e581394c"] ;
651 -> 653 ;
654 [label="mse = 0.0\nsamples = 1\nvalue = 50.0", fillcolor="#e5813980"] ;
650 -> 654 ;
655 [label="X[1] <= 31.5\nmse = 190.2344\nsamples = 8\nvalue = 49.375", fillcolor="#e581397e"] ;
649 -> 655 ;
656 [label="X[1] <= 30.5\nmse = 25.0\nsamples = 4\nvalue = 55.0", fillcolor="#e581398c"] ;
655 -> 656 ;
657 [label="mse = 0.0\nsamples = 2\nvalue = 50.0", fillcolor="#e5813980"] ;
656 -> 657 ;
658 [label="mse = 0.0\nsamples = 2\nvalue = 60.0", fillcolor="#e5813999"] ;
656 -> 658 ;
659 [label="X[1] <= 33.0\nmse = 292.1875\nsamples = 4\nvalue = 43.75", fillcolor="#e5813970"] ;
655 -> 659 ;
660 [label="mse = 306.25\nsamples = 2\nvalue = 32.5", fillcolor="#e5813953"] ;
659 -> 660 ;
661 [label="X[2] <= 13.5\nmse = 25.0\nsamples = 2\nvalue = 55.0", fillcolor="#e581398c"] ;
659 -> 661 ;
662 [label="mse = 0.0\nsamples = 1\nvalue = 50.0", fillcolor="#e5813980"] ;
661 -> 662 ;
663 [label="mse = 0.0\nsamples = 1\nvalue = 60.0", fillcolor="#e5813999"] ;
661 -> 663 ;
664 [label="X[1] <= 37.0\nmse = 342.1875\nsamples = 4\nvalue = 23.75", fillcolor="#e581393d"] ;
636 -> 664 ;
665 [label="X[2] <= 14.0\nmse = 56.25\nsamples = 2\nvalue = 7.5", fillcolor="#e5813913"] ;
664 -> 665 ;
666 [label="mse = 0.0\nsamples = 1\nvalue = 0.0", fillcolor="#e5813900"] ;
665 -> 666 ;
667 [label="mse = 0.0\nsamples = 1\nvalue = 15.0", fillcolor="#e5813926"] ;
665 -> 667 ;
668 [label="X[2] <= 13.0\nmse = 100.0\nsamples = 2\nvalue = 40.0", fillcolor="#e5813966"] ;
664 -> 668 ;
669 [label="mse = 0.0\nsamples = 1\nvalue = 30.0", fillcolor="#e581394c"] ;
668 -> 669 ;
670 [label="mse = 0.0\nsamples = 1\nvalue = 50.0", fillcolor="#e5813980"] ;
668 -> 670 ;
671 [label="X[1] <= 29.0\nmse = 259.4675\nsamples = 13\nvalue = 49.6154", fillcolor="#e581397f"] ;
635 -> 671 ;
672 [label="X[1] <= 26.0\nmse = 6.25\nsamples = 2\nvalue = 72.5", fillcolor="#e58139b9"] ;
671 -> 672 ;
673 [label="mse = 0.0\nsamples = 1\nvalue = 70.0", fillcolor="#e58139b2"] ;
672 -> 673 ;
674 [label="mse = 0.0\nsamples = 1\nvalue = 75.0", fillcolor="#e58139bf"] ;
672 -> 674 ;
675 [label="X[1] <= 32.0\nmse = 192.9752\nsamples = 11\nvalue = 45.4545", fillcolor="#e5813974"] ;
671 -> 675 ;
676 [label="mse = 156.25\nsamples = 2\nvalue = 27.5", fillcolor="#e5813946"] ;
675 -> 676 ;
677 [label="X[2] <= 16.5\nmse = 113.5802\nsamples = 9\nvalue = 49.4444", fillcolor="#e581397e"] ;
675 -> 677 ;
678 [label="X[1] <= 34.5\nmse = 97.9167\nsamples = 6\nvalue = 52.5", fillcolor="#e5813986"] ;
677 -> 678 ;
679 [label="mse = 0.0\nsamples = 1\nvalue = 60.0", fillcolor="#e5813999"] ;
678 -> 679 ;
680 [label="X[1] <= 36.5\nmse = 104.0\nsamples = 5\nvalue = 51.0", fillcolor="#e5813982"] ;
678 -> 680 ;
681 [label="mse = 0.0\nsamples = 1\nvalue = 40.0", fillcolor="#e5813966"] ;
680 -> 681 ;
682 [label="X[1] <= 38.5\nmse = 92.1875\nsamples = 4\nvalue = 53.75", fillcolor="#e5813989"] ;
680 -> 682 ;
683 [label="X[1] <= 37.5\nmse = 116.6667\nsamples = 3\nvalue = 55.0", fillcolor="#e581398c"] ;
682 -> 683 ;
684 [label="mse = 156.25\nsamples = 2\nvalue = 52.5", fillcolor="#e5813986"] ;
683 -> 684 ;
685 [label="mse = 0.0\nsamples = 1\nvalue = 60.0", fillcolor="#e5813999"] ;
683 -> 685 ;
686 [label="mse = 0.0\nsamples = 1\nvalue = 50.0", fillcolor="#e5813980"] ;
682 -> 686 ;
687 [label="X[1] <= 37.0\nmse = 88.8889\nsamples = 3\nvalue = 43.3333", fillcolor="#e581396e"] ;
677 -> 687 ;
688 [label="mse = 0.0\nsamples = 1\nvalue = 50.0", fillcolor="#e5813980"] ;
687 -> 688 ;
689 [label="mse = 100.0\nsamples = 2\nvalue = 40.0", fillcolor="#e5813966"] ;
687 -> 689 ;
690 [label="X[2] <= 16.5\nmse = 225.0\nsamples = 2\nvalue = 15.0", fillcolor="#e5813926"] ;
634 -> 690 ;
691 [label="mse = 0.0\nsamples = 1\nvalue = 30.0", fillcolor="#e581394c"] ;
690 -> 691 ;
692 [label="mse = 0.0\nsamples = 1\nvalue = 0.0", fillcolor="#e5813900"] ;
690 -> 692 ;
693 [label="X[2] <= 14.0\nmse = 50.0\nsamples = 4\nvalue = 60.0", fillcolor="#e5813999"] ;
633 -> 693 ;
694 [label="X[1] <= 42.5\nmse = 22.2222\nsamples = 3\nvalue = 63.3333", fillcolor="#e58139a2"] ;
693 -> 694 ;
695 [label="mse = 0.0\nsamples = 1\nvalue = 70.0", fillcolor="#e58139b2"] ;
694 -> 695 ;
696 [label="mse = 0.0\nsamples = 2\nvalue = 60.0", fillcolor="#e5813999"] ;
694 -> 696 ;
697 [label="mse = 0.0\nsamples = 1\nvalue = 50.0", fillcolor="#e5813980"] ;
693 -> 697 ;
698 [label="X[1] <= 60.5\nmse = 461.3011\nsamples = 76\nvalue = 34.5395", fillcolor="#e5813958"] ;
632 -> 698 ;
699 [label="X[1] <= 59.5\nmse = 461.6211\nsamples = 48\nvalue = 36.5625", fillcolor="#e581395d"] ;
698 -> 699 ;
700 [label="X[1] <= 57.5\nmse = 386.8156\nsamples = 44\nvalue = 34.6591", fillcolor="#e5813958"] ;
699 -> 700 ;
701 [label="X[1] <= 46.5\nmse = 375.2409\nsamples = 42\nvalue = 35.5952", fillcolor="#e581395b"] ;
700 -> 701 ;
702 [label="X[1] <= 45.5\nmse = 550.0\nsamples = 9\nvalue = 28.3333", fillcolor="#e5813948"] ;
701 -> 702 ;
703 [label="X[2] <= 12.5\nmse = 505.8594\nsamples = 8\nvalue = 31.875", fillcolor="#e5813951"] ;
702 -> 703 ;
704 [label="X[2] <= 11.5\nmse = 438.8889\nsamples = 3\nvalue = 21.6667", fillcolor="#e5813937"] ;
703 -> 704 ;
705 [label="mse = 0.0\nsamples = 1\nvalue = 50.0", fillcolor="#e5813980"] ;
704 -> 705 ;
706 [label="X[1] <= 44.5\nmse = 56.25\nsamples = 2\nvalue = 7.5", fillcolor="#e5813913"] ;
704 -> 706 ;
707 [label="mse = 0.0\nsamples = 1\nvalue = 15.0", fillcolor="#e5813926"] ;
706 -> 707 ;
708 [label="mse = 0.0\nsamples = 1\nvalue = 0.0", fillcolor="#e5813900"] ;
706 -> 708 ;
709 [label="X[2] <= 15.0\nmse = 446.0\nsamples = 5\nvalue = 38.0", fillcolor="#e5813961"] ;
703 -> 709 ;
710 [label="X[2] <= 13.5\nmse = 516.6667\nsamples = 3\nvalue = 45.0", fillcolor="#e5813973"] ;
709 -> 710 ;
711 [label="mse = 0.0\nsamples = 1\nvalue = 50.0", fillcolor="#e5813980"] ;
710 -> 711 ;
712 [label="mse = 756.25\nsamples = 2\nvalue = 42.5", fillcolor="#e581396c"] ;
710 -> 712 ;
713 [label="X[1] <= 44.5\nmse = 156.25\nsamples = 2\nvalue = 27.5", fillcolor="#e5813946"] ;
709 -> 713 ;
714 [label="mse = 0.0\nsamples = 1\nvalue = 15.0", fillcolor="#e5813926"] ;
713 -> 714 ;
715 [label="mse = 0.0\nsamples = 1\nvalue = 40.0", fillcolor="#e5813966"] ;
713 -> 715 ;
716 [label="mse = 0.0\nsamples = 1\nvalue = 0.0", fillcolor="#e5813900"] ;
702 -> 716 ;
717 [label="X[1] <= 49.5\nmse = 309.2746\nsamples = 33\nvalue = 37.5758", fillcolor="#e5813960"] ;
701 -> 717 ;
718 [label="X[2] <= 13.5\nmse = 183.6735\nsamples = 7\nvalue = 48.5714", fillcolor="#e581397c"] ;
717 -> 718 ;
719 [label="X[1] <= 48.0\nmse = 88.8889\nsamples = 3\nvalue = 53.3333", fillcolor="#e5813988"] ;
718 -> 719 ;
720 [label="mse = 0.0\nsamples = 1\nvalue = 60.0", fillcolor="#e5813999"] ;
719 -> 720 ;
721 [label="mse = 100.0\nsamples = 2\nvalue = 50.0", fillcolor="#e5813980"] ;
719 -> 721 ;
722 [label="X[2] <= 16.5\nmse = 225.0\nsamples = 4\nvalue = 45.0", fillcolor="#e5813973"] ;
718 -> 722 ;
723 [label="X[2] <= 15.0\nmse = 25.0\nsamples = 2\nvalue = 35.0", fillcolor="#e5813959"] ;
722 -> 723 ;
724 [label="mse = 0.0\nsamples = 1\nvalue = 40.0", fillcolor="#e5813966"] ;
723 -> 724 ;
725 [label="mse = 0.0\nsamples = 1\nvalue = 30.0", fillcolor="#e581394c"] ;
723 -> 725 ;
726 [label="mse = 225.0\nsamples = 2\nvalue = 55.0", fillcolor="#e581398c"] ;
722 -> 726 ;
727 [label="X[2] <= 14.5\nmse = 301.7751\nsamples = 26\nvalue = 34.6154", fillcolor="#e5813958"] ;
717 -> 727 ;
728 [label="X[1] <= 54.5\nmse = 223.3398\nsamples = 16\nvalue = 39.6875", fillcolor="#e5813965"] ;
727 -> 728 ;
729 [label="X[2] <= 13.5\nmse = 165.4321\nsamples = 9\nvalue = 43.8889", fillcolor="#e5813970"] ;
728 -> 729 ;
730 [label="X[1] <= 50.5\nmse = 77.551\nsamples = 7\nvalue = 47.1429", fillcolor="#e5813978"] ;
729 -> 730 ;
731 [label="mse = 0.0\nsamples = 1\nvalue = 40.0", fillcolor="#e5813966"] ;
730 -> 731 ;
732 [label="X[2] <= 12.5\nmse = 80.5556\nsamples = 6\nvalue = 48.3333", fillcolor="#e581397b"] ;
730 -> 732 ;
733 [label="mse = 0.0\nsamples = 3\nvalue = 50.0", fillcolor="#e5813980"] ;
732 -> 733 ;
734 [label="mse = 155.5556\nsamples = 3\nvalue = 46.6667", fillcolor="#e5813977"] ;
732 -> 734 ;
735 [label="X[1] <= 51.5\nmse = 306.25\nsamples = 2\nvalue = 32.5", fillcolor="#e5813953"] ;
729 -> 735 ;
736 [label="mse = 0.0\nsamples = 1\nvalue = 50.0", fillcolor="#e5813980"] ;
735 -> 736 ;
737 [label="mse = 0.0\nsamples = 1\nvalue = 15.0", fillcolor="#e5813926"] ;
735 -> 737 ;
738 [label="X[2] <= 13.0\nmse = 245.9184\nsamples = 7\nvalue = 34.2857", fillcolor="#e5813957"] ;
728 -> 738 ;
739 [label="X[1] <= 56.5\nmse = 56.25\nsamples = 4\nvalue = 22.5", fillcolor="#e5813939"] ;
738 -> 739 ;
740 [label="X[1] <= 55.5\nmse = 50.0\nsamples = 3\nvalue = 20.0", fillcolor="#e5813933"] ;
739 -> 740 ;
741 [label="mse = 56.25\nsamples = 2\nvalue = 22.5", fillcolor="#e5813939"] ;
740 -> 741 ;
742 [label="mse = 0.0\nsamples = 1\nvalue = 15.0", fillcolor="#e5813926"] ;
740 -> 742 ;
743 [label="mse = 0.0\nsamples = 1\nvalue = 30.0", fillcolor="#e581394c"] ;
739 -> 743 ;
744 [label="X[1] <= 55.5\nmse = 66.6667\nsamples = 3\nvalue = 50.0", fillcolor="#e5813980"] ;
738 -> 744 ;
745 [label="mse = 0.0\nsamples = 1\nvalue = 60.0", fillcolor="#e5813999"] ;
744 -> 745 ;
746 [label="X[1] <= 56.5\nmse = 25.0\nsamples = 2\nvalue = 45.0", fillcolor="#e5813973"] ;
744 -> 746 ;
747 [label="mse = 0.0\nsamples = 1\nvalue = 50.0", fillcolor="#e5813980"] ;
746 -> 747 ;
748 [label="mse = 0.0\nsamples = 1\nvalue = 40.0", fillcolor="#e5813966"] ;
746 -> 748 ;
749 [label="X[1] <= 55.5\nmse = 320.25\nsamples = 10\nvalue = 26.5", fillcolor="#e5813944"] ;
727 -> 749 ;
750 [label="X[1] <= 53.5\nmse = 403.4722\nsamples = 6\nvalue = 20.8333", fillcolor="#e5813935"] ;
749 -> 750 ;
751 [label="X[1] <= 50.5\nmse = 380.0\nsamples = 5\nvalue = 25.0", fillcolor="#e5813940"] ;
750 -> 751 ;
752 [label="mse = 225.0\nsamples = 2\nvalue = 15.0", fillcolor="#e5813926"] ;
751 -> 752 ;
753 [label="X[1] <= 52.0\nmse = 372.2222\nsamples = 3\nvalue = 31.6667", fillcolor="#e5813951"] ;
751 -> 753 ;
754 [label="mse = 506.25\nsamples = 2\nvalue = 27.5", fillcolor="#e5813946"] ;
753 -> 754 ;
755 [label="mse = 0.0\nsamples = 1\nvalue = 40.0", fillcolor="#e5813966"] ;
753 -> 755 ;
756 [label="mse = 0.0\nsamples = 1\nvalue = 0.0", fillcolor="#e5813900"] ;
750 -> 756 ;
757 [label="X[2] <= 15.5\nmse = 75.0\nsamples = 4\nvalue = 35.0", fillcolor="#e5813959"] ;
749 -> 757 ;
758 [label="mse = 0.0\nsamples = 1\nvalue = 30.0", fillcolor="#e581394c"] ;
757 -> 758 ;
759 [label="X[2] <= 16.5\nmse = 88.8889\nsamples = 3\nvalue = 36.6667", fillcolor="#e581395e"] ;
757 -> 759 ;
760 [label="mse = 100.0\nsamples = 2\nvalue = 40.0", fillcolor="#e5813966"] ;
759 -> 760 ;
761 [label="mse = 0.0\nsamples = 1\nvalue = 30.0", fillcolor="#e581394c"] ;
759 -> 761 ;
762 [label="X[2] <= 15.0\nmse = 225.0\nsamples = 2\nvalue = 15.0", fillcolor="#e5813926"] ;
700 -> 762 ;
763 [label="mse = 0.0\nsamples = 1\nvalue = 0.0", fillcolor="#e5813900"] ;
762 -> 763 ;
764 [label="mse = 0.0\nsamples = 1\nvalue = 30.0", fillcolor="#e581394c"] ;
762 -> 764 ;
765 [label="X[2] <= 15.0\nmse = 806.25\nsamples = 4\nvalue = 57.5", fillcolor="#e5813993"] ;
699 -> 765 ;
766 [label="mse = 1600.0\nsamples = 2\nvalue = 55.0", fillcolor="#e581398c"] ;
765 -> 766 ;
767 [label="mse = 0.0\nsamples = 2\nvalue = 60.0", fillcolor="#e5813999"] ;
765 -> 767 ;
768 [label="X[2] <= 11.5\nmse = 441.7092\nsamples = 28\nvalue = 31.0714", fillcolor="#e581394f"] ;
698 -> 768 ;
769 [label="mse = 0.0\nsamples = 1\nvalue = 0.0", fillcolor="#e5813900"] ;
768 -> 769 ;
770 [label="X[1] <= 77.5\nmse = 420.9877\nsamples = 27\nvalue = 32.2222", fillcolor="#e5813952"] ;
768 -> 770 ;
771 [label="X[1] <= 76.5\nmse = 419.36\nsamples = 25\nvalue = 30.8", fillcolor="#e581394f"] ;
770 -> 771 ;
772 [label="X[1] <= 70.5\nmse = 366.1626\nsamples = 23\nvalue = 33.4783", fillcolor="#e5813955"] ;
771 -> 772 ;
773 [label="X[2] <= 16.5\nmse = 336.2222\nsamples = 15\nvalue = 29.3333", fillcolor="#e581394b"] ;
772 -> 773 ;
774 [label="X[2] <= 13.5\nmse = 433.4711\nsamples = 11\nvalue = 27.2727", fillcolor="#e5813946"] ;
773 -> 774 ;
775 [label="X[1] <= 69.0\nmse = 555.5556\nsamples = 6\nvalue = 33.3333", fillcolor="#e5813955"] ;
774 -> 775 ;
776 [label="X[1] <= 63.0\nmse = 400.0\nsamples = 5\nvalue = 40.0", fillcolor="#e5813966"] ;
775 -> 776 ;
777 [label="mse = 0.0\nsamples = 2\nvalue = 50.0", fillcolor="#e5813980"] ;
776 -> 777 ;
778 [label="X[1] <= 66.0\nmse = 555.5556\nsamples = 3\nvalue = 33.3333", fillcolor="#e5813955"] ;
776 -> 778 ;
779 [label="mse = 625.0\nsamples = 2\nvalue = 25.0", fillcolor="#e5813940"] ;
778 -> 779 ;
780 [label="mse = 0.0\nsamples = 1\nvalue = 50.0", fillcolor="#e5813980"] ;
778 -> 780 ;
781 [label="mse = 0.0\nsamples = 1\nvalue = 0.0", fillcolor="#e5813900"] ;
775 -> 781 ;
782 [label="X[1] <= 69.5\nmse = 190.0\nsamples = 5\nvalue = 20.0", fillcolor="#e5813933"] ;
774 -> 782 ;
783 [label="X[1] <= 61.5\nmse = 112.5\nsamples = 4\nvalue = 15.0", fillcolor="#e5813926"] ;
782 -> 783 ;
784 [label="mse = 0.0\nsamples = 1\nvalue = 30.0", fillcolor="#e581394c"] ;
783 -> 784 ;
785 [label="X[2] <= 14.5\nmse = 50.0\nsamples = 3\nvalue = 10.0", fillcolor="#e581391a"] ;
783 -> 785 ;
786 [label="mse = 0.0\nsamples = 1\nvalue = 0.0", fillcolor="#e5813900"] ;
785 -> 786 ;
787 [label="mse = 0.0\nsamples = 2\nvalue = 15.0", fillcolor="#e5813926"] ;
785 -> 787 ;
788 [label="mse = 0.0\nsamples = 1\nvalue = 40.0", fillcolor="#e5813966"] ;
782 -> 788 ;
789 [label="X[1] <= 68.0\nmse = 25.0\nsamples = 4\nvalue = 35.0", fillcolor="#e5813959"] ;
773 -> 789 ;
790 [label="mse = 0.0\nsamples = 1\nvalue = 30.0", fillcolor="#e581394c"] ;
789 -> 790 ;
791 [label="X[1] <= 69.5\nmse = 22.2222\nsamples = 3\nvalue = 36.6667", fillcolor="#e581395e"] ;
789 -> 791 ;
792 [label="mse = 25.0\nsamples = 2\nvalue = 35.0", fillcolor="#e5813959"] ;
791 -> 792 ;
793 [label="mse = 0.0\nsamples = 1\nvalue = 40.0", fillcolor="#e5813966"] ;
791 -> 793 ;
794 [label="X[2] <= 13.5\nmse = 329.6875\nsamples = 8\nvalue = 41.25", fillcolor="#e5813969"] ;
772 -> 794 ;
795 [label="X[2] <= 12.5\nmse = 156.25\nsamples = 4\nvalue = 27.5", fillcolor="#e5813946"] ;
794 -> 795 ;
796 [label="mse = 0.0\nsamples = 1\nvalue = 15.0", fillcolor="#e5813926"] ;
795 -> 796 ;
797 [label="X[1] <= 73.5\nmse = 138.8889\nsamples = 3\nvalue = 31.6667", fillcolor="#e5813951"] ;
795 -> 797 ;
798 [label="mse = 0.0\nsamples = 1\nvalue = 40.0", fillcolor="#e5813966"] ;
797 -> 798 ;
799 [label="X[1] <= 75.5\nmse = 156.25\nsamples = 2\nvalue = 27.5", fillcolor="#e5813946"] ;
797 -> 799 ;
800 [label="mse = 0.0\nsamples = 1\nvalue = 15.0", fillcolor="#e5813926"] ;
799 -> 800 ;
801 [label="mse = 0.0\nsamples = 1\nvalue = 40.0", fillcolor="#e5813966"] ;
799 -> 801 ;
802 [label="X[1] <= 74.0\nmse = 125.0\nsamples = 4\nvalue = 55.0", fillcolor="#e581398c"] ;
794 -> 802 ;
803 [label="X[1] <= 71.5\nmse = 25.0\nsamples = 2\nvalue = 65.0", fillcolor="#e58139a6"] ;
802 -> 803 ;
804 [label="mse = 0.0\nsamples = 1\nvalue = 70.0", fillcolor="#e58139b2"] ;
803 -> 804 ;
805 [label="mse = 0.0\nsamples = 1\nvalue = 60.0", fillcolor="#e5813999"] ;
803 -> 805 ;
806 [label="X[2] <= 16.5\nmse = 25.0\nsamples = 2\nvalue = 45.0", fillcolor="#e5813973"] ;
802 -> 806 ;
807 [label="mse = 0.0\nsamples = 1\nvalue = 50.0", fillcolor="#e5813980"] ;
806 -> 807 ;
808 [label="mse = 0.0\nsamples = 1\nvalue = 40.0", fillcolor="#e5813966"] ;
806 -> 808 ;
809 [label="mse = 0.0\nsamples = 2\nvalue = 0.0", fillcolor="#e5813900"] ;
771 -> 809 ;
810 [label="mse = 100.0\nsamples = 2\nvalue = 50.0", fillcolor="#e5813980"] ;
770 -> 810 ;
811 [label="X[1] <= 87.5\nmse = 389.6489\nsamples = 133\nvalue = 44.8872", fillcolor="#e5813972"] ;
621 -> 811 ;
812 [label="X[1] <= 56.0\nmse = 367.0178\nsamples = 130\nvalue = 45.5385", fillcolor="#e5813974"] ;
811 -> 812 ;
813 [label="X[2] <= 8.0\nmse = 376.8166\nsamples = 85\nvalue = 47.3529", fillcolor="#e5813979"] ;
812 -> 813 ;
814 [label="mse = 0.0\nsamples = 1\nvalue = 85.0", fillcolor="#e58139d9"] ;
813 -> 814 ;
815 [label="X[1] <= 52.5\nmse = 364.229\nsamples = 84\nvalue = 46.9048", fillcolor="#e5813978"] ;
813 -> 815 ;
816 [label="X[1] <= 38.5\nmse = 393.6786\nsamples = 70\nvalue = 45.5", fillcolor="#e5813974"] ;
815 -> 816 ;
817 [label="X[2] <= 14.5\nmse = 443.9372\nsamples = 37\nvalue = 49.1892", fillcolor="#e581397d"] ;
816 -> 817 ;
818 [label="X[1] <= 36.5\nmse = 428.75\nsamples = 20\nvalue = 52.5", fillcolor="#e5813986"] ;
817 -> 818 ;
819 [label="X[1] <= 33.0\nmse = 433.737\nsamples = 17\nvalue = 50.2941", fillcolor="#e5813980"] ;
818 -> 819 ;
820 [label="X[1] <= 29.5\nmse = 333.8542\nsamples = 12\nvalue = 53.75", fillcolor="#e5813989"] ;
819 -> 820 ;
821 [label="X[1] <= 28.5\nmse = 166.25\nsamples = 10\nvalue = 47.5", fillcolor="#e5813979"] ;
820 -> 821 ;
822 [label="X[2] <= 12.5\nmse = 54.321\nsamples = 9\nvalue = 51.1111", fillcolor="#e5813982"] ;
821 -> 822 ;
823 [label="X[1] <= 21.0\nmse = 13.8889\nsamples = 6\nvalue = 48.3333", fillcolor="#e581397b"] ;
822 -> 823 ;
824 [label="mse = 0.0\nsamples = 3\nvalue = 50.0", fillcolor="#e5813980"] ;
823 -> 824 ;
825 [label="X[1] <= 24.5\nmse = 22.2222\nsamples = 3\nvalue = 46.6667", fillcolor="#e5813977"] ;
823 -> 825 ;
826 [label="mse = 0.0\nsamples = 1\nvalue = 40.0", fillcolor="#e5813966"] ;
825 -> 826 ;
827 [label="mse = 0.0\nsamples = 2\nvalue = 50.0", fillcolor="#e5813980"] ;
825 -> 827 ;
828 [label="X[1] <= 23.5\nmse = 88.8889\nsamples = 3\nvalue = 56.6667", fillcolor="#e5813990"] ;
822 -> 828 ;
829 [label="mse = 100.0\nsamples = 2\nvalue = 60.0", fillcolor="#e5813999"] ;
828 -> 829 ;
830 [label="mse = 0.0\nsamples = 1\nvalue = 50.0", fillcolor="#e5813980"] ;
828 -> 830 ;
831 [label="mse = 0.0\nsamples = 1\nvalue = 15.0", fillcolor="#e5813926"] ;
821 -> 831 ;
832 [label="mse = 0.0\nsamples = 2\nvalue = 85.0", fillcolor="#e58139d9"] ;
820 -> 832 ;
833 [label="X[2] <= 13.0\nmse = 576.0\nsamples = 5\nvalue = 42.0", fillcolor="#e581396b"] ;
819 -> 833 ;
834 [label="X[1] <= 35.0\nmse = 168.75\nsamples = 4\nvalue = 52.5", fillcolor="#e5813986"] ;
833 -> 834 ;
835 [label="mse = 0.0\nsamples = 1\nvalue = 60.0", fillcolor="#e5813999"] ;
834 -> 835 ;
836 [label="mse = 200.0\nsamples = 3\nvalue = 50.0", fillcolor="#e5813980"] ;
834 -> 836 ;
837 [label="mse = 0.0\nsamples = 1\nvalue = 0.0", fillcolor="#e5813900"] ;
833 -> 837 ;
838 [label="X[1] <= 37.5\nmse = 216.6667\nsamples = 3\nvalue = 65.0", fillcolor="#e58139a6"] ;
818 -> 838 ;
839 [label="mse = 0.0\nsamples = 1\nvalue = 85.0", fillcolor="#e58139d9"] ;
838 -> 839 ;
840 [label="mse = 25.0\nsamples = 2\nvalue = 55.0", fillcolor="#e581398c"] ;
838 -> 840 ;
841 [label="X[1] <= 29.5\nmse = 433.737\nsamples = 17\nvalue = 45.2941", fillcolor="#e5813974"] ;
817 -> 841 ;
842 [label="X[1] <= 27.5\nmse = 454.6875\nsamples = 8\nvalue = 51.25", fillcolor="#e5813983"] ;
841 -> 842 ;
843 [label="X[1] <= 25.5\nmse = 386.8056\nsamples = 6\nvalue = 45.8333", fillcolor="#e5813975"] ;
842 -> 843 ;
844 [label="X[1] <= 23.5\nmse = 516.6667\nsamples = 3\nvalue = 55.0", fillcolor="#e581398c"] ;
843 -> 844 ;
845 [label="mse = 0.0\nsamples = 1\nvalue = 50.0", fillcolor="#e5813980"] ;
844 -> 845 ;
846 [label="mse = 756.25\nsamples = 2\nvalue = 57.5", fillcolor="#e5813993"] ;
844 -> 846 ;
847 [label="X[2] <= 16.5\nmse = 88.8889\nsamples = 3\nvalue = 36.6667", fillcolor="#e581395e"] ;
843 -> 847 ;
848 [label="mse = 100.0\nsamples = 2\nvalue = 40.0", fillcolor="#e5813966"] ;
847 -> 848 ;
849 [label="mse = 0.0\nsamples = 1\nvalue = 30.0", fillcolor="#e581394c"] ;
847 -> 849 ;
850 [label="X[2] <= 16.0\nmse = 306.25\nsamples = 2\nvalue = 67.5", fillcolor="#e58139ac"] ;
842 -> 850 ;
851 [label="mse = 0.0\nsamples = 1\nvalue = 50.0", fillcolor="#e5813980"] ;
850 -> 851 ;
852 [label="mse = 0.0\nsamples = 1\nvalue = 85.0", fillcolor="#e58139d9"] ;
850 -> 852 ;
853 [label="X[1] <= 32.5\nmse = 355.5556\nsamples = 9\nvalue = 40.0", fillcolor="#e5813966"] ;
841 -> 853 ;
854 [label="X[2] <= 16.5\nmse = 468.75\nsamples = 4\nvalue = 32.5", fillcolor="#e5813953"] ;
853 -> 854 ;
855 [label="X[2] <= 15.5\nmse = 600.0\nsamples = 3\nvalue = 30.0", fillcolor="#e581394c"] ;
854 -> 855 ;
856 [label="mse = 0.0\nsamples = 1\nvalue = 30.0", fillcolor="#e581394c"] ;
855 -> 856 ;
857 [label="mse = 900.0\nsamples = 2\nvalue = 30.0", fillcolor="#e581394c"] ;
855 -> 857 ;
858 [label="mse = 0.0\nsamples = 1\nvalue = 40.0", fillcolor="#e5813966"] ;
854 -> 858 ;
859 [label="X[1] <= 36.5\nmse = 184.0\nsamples = 5\nvalue = 46.0", fillcolor="#e5813975"] ;
853 -> 859 ;
860 [label="X[2] <= 16.5\nmse = 150.0\nsamples = 4\nvalue = 50.0", fillcolor="#e5813980"] ;
859 -> 860 ;
861 [label="mse = 0.0\nsamples = 2\nvalue = 60.0", fillcolor="#e5813999"] ;
860 -> 861 ;
862 [label="X[1] <= 35.5\nmse = 100.0\nsamples = 2\nvalue = 40.0", fillcolor="#e5813966"] ;
860 -> 862 ;
863 [label="mse = 0.0\nsamples = 1\nvalue = 50.0", fillcolor="#e5813980"] ;
862 -> 863 ;
864 [label="mse = 0.0\nsamples = 1\nvalue = 30.0", fillcolor="#e581394c"] ;
862 -> 864 ;
865 [label="mse = 0.0\nsamples = 1\nvalue = 30.0", fillcolor="#e581394c"] ;
859 -> 865 ;
866 [label="X[2] <= 12.5\nmse = 304.9587\nsamples = 33\nvalue = 41.3636", fillcolor="#e5813969"] ;
816 -> 866 ;
867 [label="X[1] <= 46.0\nmse = 346.4844\nsamples = 8\nvalue = 35.625", fillcolor="#e581395b"] ;
866 -> 867 ;
868 [label="mse = 0.0\nsamples = 1\nvalue = 0.0", fillcolor="#e5813900"] ;
867 -> 868 ;
869 [label="X[1] <= 50.0\nmse = 188.7755\nsamples = 7\nvalue = 40.7143", fillcolor="#e5813968"] ;
867 -> 869 ;
870 [label="X[1] <= 47.5\nmse = 25.0\nsamples = 2\nvalue = 35.0", fillcolor="#e5813959"] ;
869 -> 870 ;
871 [label="mse = 0.0\nsamples = 1\nvalue = 40.0", fillcolor="#e5813966"] ;
870 -> 871 ;
872 [label="mse = 0.0\nsamples = 1\nvalue = 30.0", fillcolor="#e581394c"] ;
870 -> 872 ;
873 [label="mse = 236.0\nsamples = 5\nvalue = 43.0", fillcolor="#e581396e"] ;
869 -> 873 ;
874 [label="X[1] <= 50.5\nmse = 277.76\nsamples = 25\nvalue = 43.2", fillcolor="#e581396e"] ;
866 -> 874 ;
875 [label="X[1] <= 44.5\nmse = 215.7025\nsamples = 22\nvalue = 44.5455", fillcolor="#e5813972"] ;
874 -> 875 ;
876 [label="X[1] <= 39.5\nmse = 90.9722\nsamples = 12\nvalue = 40.8333", fillcolor="#e5813968"] ;
875 -> 876 ;
877 [label="mse = 0.0\nsamples = 1\nvalue = 30.0", fillcolor="#e581394c"] ;
876 -> 877 ;
878 [label="X[1] <= 41.5\nmse = 87.6033\nsamples = 11\nvalue = 41.8182", fillcolor="#e581396b"] ;
876 -> 878 ;
879 [label="X[2] <= 15.0\nmse = 25.0\nsamples = 6\nvalue = 45.0", fillcolor="#e5813973"] ;
878 -> 879 ;
880 [label="mse = 0.0\nsamples = 1\nvalue = 50.0", fillcolor="#e5813980"] ;
879 -> 880 ;
881 [label="X[1] <= 40.5\nmse = 24.0\nsamples = 5\nvalue = 44.0", fillcolor="#e5813970"] ;
879 -> 881 ;
882 [label="mse = 0.0\nsamples = 2\nvalue = 40.0", fillcolor="#e5813966"] ;
881 -> 882 ;
883 [label="X[2] <= 16.5\nmse = 22.2222\nsamples = 3\nvalue = 46.6667", fillcolor="#e5813977"] ;
881 -> 883 ;
884 [label="mse = 25.0\nsamples = 2\nvalue = 45.0", fillcolor="#e5813973"] ;
883 -> 884 ;
885 [label="mse = 0.0\nsamples = 1\nvalue = 50.0", fillcolor="#e5813980"] ;
883 -> 885 ;
886 [label="X[2] <= 15.5\nmse = 136.0\nsamples = 5\nvalue = 38.0", fillcolor="#e5813961"] ;
878 -> 886 ;
887 [label="mse = 0.0\nsamples = 1\nvalue = 30.0", fillcolor="#e581394c"] ;
886 -> 887 ;
888 [label="X[2] <= 16.5\nmse = 150.0\nsamples = 4\nvalue = 40.0", fillcolor="#e5813966"] ;
886 -> 888 ;
889 [label="mse = 225.0\nsamples = 2\nvalue = 45.0", fillcolor="#e5813973"] ;
888 -> 889 ;
890 [label="X[1] <= 43.0\nmse = 25.0\nsamples = 2\nvalue = 35.0", fillcolor="#e5813959"] ;
888 -> 890 ;
891 [label="mse = 0.0\nsamples = 1\nvalue = 30.0", fillcolor="#e581394c"] ;
890 -> 891 ;
892 [label="mse = 0.0\nsamples = 1\nvalue = 40.0", fillcolor="#e5813966"] ;
890 -> 892 ;
893 [label="X[2] <= 14.5\nmse = 329.0\nsamples = 10\nvalue = 49.0", fillcolor="#e581397d"] ;
875 -> 893 ;
894 [label="X[2] <= 13.5\nmse = 468.75\nsamples = 4\nvalue = 37.5", fillcolor="#e5813960"] ;
893 -> 894 ;
895 [label="mse = 0.0\nsamples = 2\nvalue = 50.0", fillcolor="#e5813980"] ;
894 -> 895 ;
896 [label="mse = 625.0\nsamples = 2\nvalue = 25.0", fillcolor="#e5813940"] ;
894 -> 896 ;
897 [label="X[1] <= 48.5\nmse = 88.8889\nsamples = 6\nvalue = 56.6667", fillcolor="#e5813990"] ;
893 -> 897 ;
898 [label="X[1] <= 47.5\nmse = 22.2222\nsamples = 3\nvalue = 63.3333", fillcolor="#e58139a2"] ;
897 -> 898 ;
899 [label="mse = 0.0\nsamples = 2\nvalue = 60.0", fillcolor="#e5813999"] ;
898 -> 899 ;
900 [label="mse = 0.0\nsamples = 1\nvalue = 70.0", fillcolor="#e58139b2"] ;
898 -> 900 ;
901 [label="X[2] <= 16.0\nmse = 66.6667\nsamples = 3\nvalue = 50.0", fillcolor="#e5813980"] ;
897 -> 901 ;
902 [label="mse = 25.0\nsamples = 2\nvalue = 45.0", fillcolor="#e5813973"] ;
901 -> 902 ;
903 [label="mse = 0.0\nsamples = 1\nvalue = 60.0", fillcolor="#e5813999"] ;
901 -> 903 ;
904 [label="X[1] <= 51.5\nmse = 622.2222\nsamples = 3\nvalue = 33.3333", fillcolor="#e5813955"] ;
874 -> 904 ;
905 [label="mse = 0.0\nsamples = 1\nvalue = 0.0", fillcolor="#e5813900"] ;
904 -> 905 ;
906 [label="X[2] <= 15.0\nmse = 100.0\nsamples = 2\nvalue = 50.0", fillcolor="#e5813980"] ;
904 -> 906 ;
907 [label="mse = 0.0\nsamples = 1\nvalue = 60.0", fillcolor="#e5813999"] ;
906 -> 907 ;
908 [label="mse = 0.0\nsamples = 1\nvalue = 40.0", fillcolor="#e5813966"] ;
906 -> 908 ;
909 [label="X[2] <= 14.5\nmse = 157.7806\nsamples = 14\nvalue = 53.9286", fillcolor="#e581398a"] ;
815 -> 909 ;
910 [label="X[1] <= 53.5\nmse = 122.4852\nsamples = 13\nvalue = 55.7692", fillcolor="#e581398e"] ;
909 -> 910 ;
911 [label="X[2] <= 13.5\nmse = 47.2222\nsamples = 6\nvalue = 51.6667", fillcolor="#e5813984"] ;
910 -> 911 ;
912 [label="X[2] <= 12.5\nmse = 25.0\nsamples = 4\nvalue = 55.0", fillcolor="#e581398c"] ;
911 -> 912 ;
913 [label="mse = 0.0\nsamples = 2\nvalue = 50.0", fillcolor="#e5813980"] ;
912 -> 913 ;
914 [label="mse = 0.0\nsamples = 2\nvalue = 60.0", fillcolor="#e5813999"] ;
912 -> 914 ;
915 [label="mse = 25.0\nsamples = 2\nvalue = 45.0", fillcolor="#e5813973"] ;
911 -> 915 ;
916 [label="X[2] <= 13.0\nmse = 160.2041\nsamples = 7\nvalue = 59.2857", fillcolor="#e5813997"] ;
910 -> 916 ;
917 [label="X[1] <= 54.5\nmse = 75.0\nsamples = 4\nvalue = 55.0", fillcolor="#e581398c"] ;
916 -> 917 ;
918 [label="mse = 0.0\nsamples = 2\nvalue = 50.0", fillcolor="#e5813980"] ;
917 -> 918 ;
919 [label="X[2] <= 11.5\nmse = 100.0\nsamples = 2\nvalue = 60.0", fillcolor="#e5813999"] ;
917 -> 919 ;
920 [label="mse = 0.0\nsamples = 1\nvalue = 50.0", fillcolor="#e5813980"] ;
919 -> 920 ;
921 [label="mse = 0.0\nsamples = 1\nvalue = 70.0", fillcolor="#e58139b2"] ;
919 -> 921 ;
922 [label="X[1] <= 54.5\nmse = 216.6667\nsamples = 3\nvalue = 65.0", fillcolor="#e58139a6"] ;
916 -> 922 ;
923 [label="mse = 306.25\nsamples = 2\nvalue = 67.5", fillcolor="#e58139ac"] ;
922 -> 923 ;
924 [label="mse = 0.0\nsamples = 1\nvalue = 60.0", fillcolor="#e5813999"] ;
922 -> 924 ;
925 [label="mse = 0.0\nsamples = 1\nvalue = 30.0", fillcolor="#e581394c"] ;
909 -> 925 ;
926 [label="X[1] <= 61.5\nmse = 330.5432\nsamples = 45\nvalue = 42.1111", fillcolor="#e581396b"] ;
812 -> 926 ;
927 [label="X[1] <= 59.5\nmse = 171.0\nsamples = 10\nvalue = 32.0", fillcolor="#e5813952"] ;
926 -> 927 ;
928 [label="X[2] <= 8.0\nmse = 147.2222\nsamples = 6\nvalue = 38.3333", fillcolor="#e5813962"] ;
927 -> 928 ;
929 [label="mse = 0.0\nsamples = 1\nvalue = 20.0", fillcolor="#e5813933"] ;
928 -> 929 ;
930 [label="X[2] <= 15.5\nmse = 96.0\nsamples = 5\nvalue = 42.0", fillcolor="#e581396b"] ;
928 -> 930 ;
931 [label="X[2] <= 13.0\nmse = 100.0\nsamples = 4\nvalue = 40.0", fillcolor="#e5813966"] ;
930 -> 931 ;
932 [label="X[1] <= 58.0\nmse = 88.8889\nsamples = 3\nvalue = 43.3333", fillcolor="#e581396e"] ;
931 -> 932 ;
933 [label="mse = 100.0\nsamples = 2\nvalue = 40.0", fillcolor="#e5813966"] ;
932 -> 933 ;
934 [label="mse = 0.0\nsamples = 1\nvalue = 50.0", fillcolor="#e5813980"] ;
932 -> 934 ;
935 [label="mse = 0.0\nsamples = 1\nvalue = 30.0", fillcolor="#e581394c"] ;
931 -> 935 ;
936 [label="mse = 0.0\nsamples = 1\nvalue = 50.0", fillcolor="#e5813980"] ;
930 -> 936 ;
937 [label="X[2] <= 15.5\nmse = 56.25\nsamples = 4\nvalue = 22.5", fillcolor="#e5813939"] ;
927 -> 937 ;
938 [label="X[2] <= 13.0\nmse = 50.0\nsamples = 3\nvalue = 20.0", fillcolor="#e5813933"] ;
937 -> 938 ;
939 [label="mse = 56.25\nsamples = 2\nvalue = 22.5", fillcolor="#e5813939"] ;
938 -> 939 ;
940 [label="mse = 0.0\nsamples = 1\nvalue = 15.0", fillcolor="#e5813926"] ;
938 -> 940 ;
941 [label="mse = 0.0\nsamples = 1\nvalue = 30.0", fillcolor="#e581394c"] ;
937 -> 941 ;
942 [label="X[1] <= 73.5\nmse = 338.5714\nsamples = 35\nvalue = 45.0", fillcolor="#e5813973"] ;
926 -> 942 ;
943 [label="X[1] <= 65.5\nmse = 321.172\nsamples = 23\nvalue = 41.9565", fillcolor="#e581396b"] ;
942 -> 943 ;
944 [label="X[2] <= 14.0\nmse = 88.8889\nsamples = 6\nvalue = 53.3333", fillcolor="#e5813988"] ;
943 -> 944 ;
945 [label="mse = 0.0\nsamples = 1\nvalue = 70.0", fillcolor="#e58139b2"] ;
944 -> 945 ;
946 [label="X[2] <= 16.5\nmse = 40.0\nsamples = 5\nvalue = 50.0", fillcolor="#e5813980"] ;
944 -> 946 ;
947 [label="X[1] <= 63.5\nmse = 22.2222\nsamples = 3\nvalue = 53.3333", fillcolor="#e5813988"] ;
946 -> 947 ;
948 [label="mse = 0.0\nsamples = 1\nvalue = 50.0", fillcolor="#e5813980"] ;
947 -> 948 ;
949 [label="mse = 25.0\nsamples = 2\nvalue = 55.0", fillcolor="#e581398c"] ;
947 -> 949 ;
950 [label="X[1] <= 63.5\nmse = 25.0\nsamples = 2\nvalue = 45.0", fillcolor="#e5813973"] ;
946 -> 950 ;
951 [label="mse = 0.0\nsamples = 1\nvalue = 50.0", fillcolor="#e5813980"] ;
950 -> 951 ;
952 [label="mse = 0.0\nsamples = 1\nvalue = 40.0", fillcolor="#e5813966"] ;
950 -> 952 ;
953 [label="X[1] <= 66.5\nmse = 341.3495\nsamples = 17\nvalue = 37.9412", fillcolor="#e5813961"] ;
943 -> 953 ;
954 [label="X[2] <= 15.0\nmse = 206.25\nsamples = 4\nvalue = 27.5", fillcolor="#e5813946"] ;
953 -> 954 ;
955 [label="mse = 306.25\nsamples = 2\nvalue = 32.5", fillcolor="#e5813953"] ;
954 -> 955 ;
956 [label="X[2] <= 16.5\nmse = 56.25\nsamples = 2\nvalue = 22.5", fillcolor="#e5813939"] ;
954 -> 956 ;
957 [label="mse = 0.0\nsamples = 1\nvalue = 15.0", fillcolor="#e5813926"] ;
956 -> 957 ;
958 [label="mse = 0.0\nsamples = 1\nvalue = 30.0", fillcolor="#e581394c"] ;
956 -> 958 ;
959 [label="X[1] <= 69.5\nmse = 339.0533\nsamples = 13\nvalue = 41.1538", fillcolor="#e5813969"] ;
953 -> 959 ;
960 [label="X[2] <= 15.0\nmse = 236.8056\nsamples = 6\nvalue = 45.8333", fillcolor="#e5813975"] ;
959 -> 960 ;
961 [label="X[1] <= 68.5\nmse = 80.0\nsamples = 5\nvalue = 40.0", fillcolor="#e5813966"] ;
960 -> 961 ;
962 [label="X[2] <= 12.5\nmse = 68.75\nsamples = 4\nvalue = 37.5", fillcolor="#e5813960"] ;
961 -> 962 ;
963 [label="mse = 0.0\nsamples = 1\nvalue = 50.0", fillcolor="#e5813980"] ;
962 -> 963 ;
964 [label="X[1] <= 67.5\nmse = 22.2222\nsamples = 3\nvalue = 33.3333", fillcolor="#e5813955"] ;
962 -> 964 ;
965 [label="mse = 0.0\nsamples = 2\nvalue = 30.0", fillcolor="#e581394c"] ;
964 -> 965 ;
966 [label="mse = 0.0\nsamples = 1\nvalue = 40.0", fillcolor="#e5813966"] ;
964 -> 966 ;
967 [label="mse = 0.0\nsamples = 1\nvalue = 50.0", fillcolor="#e5813980"] ;
961 -> 967 ;
968 [label="mse = 0.0\nsamples = 1\nvalue = 75.0", fillcolor="#e58139bf"] ;
960 -> 968 ;
969 [label="X[1] <= 70.5\nmse = 391.8367\nsamples = 7\nvalue = 37.1429", fillcolor="#e581395f"] ;
959 -> 969 ;
970 [label="X[2] <= 14.5\nmse = 600.0\nsamples = 3\nvalue = 30.0", fillcolor="#e581394c"] ;
969 -> 970 ;
971 [label="mse = 900.0\nsamples = 2\nvalue = 30.0", fillcolor="#e581394c"] ;
970 -> 971 ;
972 [label="mse = 0.0\nsamples = 1\nvalue = 30.0", fillcolor="#e581394c"] ;
970 -> 972 ;
973 [label="X[1] <= 71.5\nmse = 168.75\nsamples = 4\nvalue = 42.5", fillcolor="#e581396c"] ;
969 -> 973 ;
974 [label="mse = 0.0\nsamples = 1\nvalue = 60.0", fillcolor="#e5813999"] ;
973 -> 974 ;
975 [label="X[1] <= 72.5\nmse = 88.8889\nsamples = 3\nvalue = 36.6667", fillcolor="#e581395e"] ;
973 -> 975 ;
976 [label="mse = 0.0\nsamples = 1\nvalue = 30.0", fillcolor="#e581394c"] ;
975 -> 976 ;
977 [label="X[2] <= 15.0\nmse = 100.0\nsamples = 2\nvalue = 40.0", fillcolor="#e5813966"] ;
975 -> 977 ;
978 [label="mse = 0.0\nsamples = 1\nvalue = 50.0", fillcolor="#e5813980"] ;
977 -> 978 ;
979 [label="mse = 0.0\nsamples = 1\nvalue = 30.0", fillcolor="#e581394c"] ;
977 -> 979 ;
980 [label="X[1] <= 76.5\nmse = 320.1389\nsamples = 12\nvalue = 50.8333", fillcolor="#e5813982"] ;
942 -> 980 ;
981 [label="X[2] <= 14.0\nmse = 418.75\nsamples = 4\nvalue = 57.5", fillcolor="#e5813993"] ;
980 -> 981 ;
982 [label="X[1] <= 74.5\nmse = 88.8889\nsamples = 3\nvalue = 46.6667", fillcolor="#e5813977"] ;
981 -> 982 ;
983 [label="mse = 0.0\nsamples = 1\nvalue = 60.0", fillcolor="#e5813999"] ;
982 -> 983 ;
984 [label="mse = 0.0\nsamples = 2\nvalue = 40.0", fillcolor="#e5813966"] ;
982 -> 984 ;
985 [label="mse = 0.0\nsamples = 1\nvalue = 90.0", fillcolor="#e58139e6"] ;
981 -> 985 ;
986 [label="X[2] <= 15.0\nmse = 237.5\nsamples = 8\nvalue = 47.5", fillcolor="#e5813979"] ;
980 -> 986 ;
987 [label="X[2] <= 11.5\nmse = 114.5833\nsamples = 6\nvalue = 52.5", fillcolor="#e5813986"] ;
986 -> 987 ;
988 [label="mse = 0.0\nsamples = 1\nvalue = 40.0", fillcolor="#e5813966"] ;
987 -> 988 ;
989 [label="X[1] <= 80.5\nmse = 100.0\nsamples = 5\nvalue = 55.0", fillcolor="#e581398c"] ;
987 -> 989 ;
990 [label="mse = 0.0\nsamples = 2\nvalue = 50.0", fillcolor="#e5813980"] ;
989 -> 990 ;
991 [label="X[1] <= 81.5\nmse = 138.8889\nsamples = 3\nvalue = 58.3333", fillcolor="#e5813995"] ;
989 -> 991 ;
992 [label="mse = 0.0\nsamples = 1\nvalue = 75.0", fillcolor="#e58139bf"] ;
991 -> 992 ;
993 [label="mse = 0.0\nsamples = 2\nvalue = 50.0", fillcolor="#e5813980"] ;
991 -> 993 ;
994 [label="X[2] <= 16.5\nmse = 306.25\nsamples = 2\nvalue = 32.5", fillcolor="#e5813953"] ;
986 -> 994 ;
995 [label="mse = 0.0\nsamples = 1\nvalue = 15.0", fillcolor="#e5813926"] ;
994 -> 995 ;
996 [label="mse = 0.0\nsamples = 1\nvalue = 50.0", fillcolor="#e5813980"] ;
994 -> 996 ;
997 [label="X[2] <= 13.5\nmse = 555.5556\nsamples = 3\nvalue = 16.6667", fillcolor="#e581392b"] ;
811 -> 997 ;
998 [label="mse = 0.0\nsamples = 1\nvalue = 50.0", fillcolor="#e5813980"] ;
997 -> 998 ;
999 [label="mse = 0.0\nsamples = 2\nvalue = 0.0", fillcolor="#e5813900"] ;
997 -> 999 ;
1000 [label="X[1] <= 54.5\nmse = 347.1966\nsamples = 540\nvalue = 74.7056", fillcolor="#e58139be"] ;
0 -> 1000 [labeldistance=2.5, labelangle=-45, headlabel="False"] ;
1001 [label="X[2] <= 15.5\nmse = 345.027\nsamples = 340\nvalue = 72.6059", fillcolor="#e58139b9"] ;
1000 -> 1001 ;
1002 [label="X[1] <= 32.5\nmse = 369.3007\nsamples = 247\nvalue = 71.1053", fillcolor="#e58139b5"] ;
1001 -> 1002 ;
1003 [label="X[1] <= 18.5\nmse = 252.4119\nsamples = 77\nvalue = 75.7143", fillcolor="#e58139c1"] ;
1002 -> 1003 ;
1004 [label="X[2] <= 9.5\nmse = 279.6875\nsamples = 8\nvalue = 58.75", fillcolor="#e5813996"] ;
1003 -> 1004 ;
1005 [label="mse = 0.0\nsamples = 1\nvalue = 85.0", fillcolor="#e58139d9"] ;
1004 -> 1005 ;
1006 [label="X[2] <= 11.5\nmse = 207.1429\nsamples = 7\nvalue = 55.0", fillcolor="#e581398c"] ;
1004 -> 1006 ;
1007 [label="mse = 0.0\nsamples = 1\nvalue = 40.0", fillcolor="#e5813966"] ;
1006 -> 1007 ;
1008 [label="X[0] <= 0.5\nmse = 197.9167\nsamples = 6\nvalue = 57.5", fillcolor="#e5813993"] ;
1006 -> 1008 ;
1009 [label="mse = 279.6875\nsamples = 4\nvalue = 58.75", fillcolor="#e5813996"] ;
1008 -> 1009 ;
1010 [label="X[2] <= 12.5\nmse = 25.0\nsamples = 2\nvalue = 55.0", fillcolor="#e581398c"] ;
1008 -> 1010 ;
